{"learner":{"attributes":{},"feature_names":["j1p4 pt","j1p4 phi","j1p4 eta","j1p4 mass","j2p4 pt","j2p4 phi","j2p4 eta","j2p4 mass","j3p4 pt","j3p4 phi","j3p4 eta","j3p4 mass","dR12 Unnamed: 12_level_1","dR13 Unnamed: 13_level_1","dR23 Unnamed: 14_level_1","j1btag Unnamed: 15_level_1","j2btag Unnamed: 16_level_1","j3btag Unnamed: 17_level_1","j1area Unnamed: 18_level_1","j2area Unnamed: 19_level_1","j3area Unnamed: 20_level_1"],"feature_types":["float","float","float","float","float","float","float","float","float","float","float","float","float","float","float","float","float","float","float","float","float"],"gradient_booster":{"model":{"gbtree_model_param":{"num_trees":"150","size_leaf_vector":"0"},"tree_info":[0,0,0,0,0,0,0,0,0,0,0,0,0,0,0,0,0,0,0,0,0,0,0,0,0,0,0,0,0,0,0,0,0,0,0,0,0,0,0,0,0,0,0,0,0,0,0,0,0,0,0,0,0,0,0,0,0,0,0,0,0,0,0,0,0,0,0,0,0,0,0,0,0,0,0,0,0,0,0,0,0,0,0,0,0,0,0,0,0,0,0,0,0,0,0,0,0,0,0,0,0,0,0,0,0,0,0,0,0,0,0,0,0,0,0,0,0,0,0,0,0,0,0,0,0,0,0,0,0,0,0,0,0,0,0,0,0,0,0,0,0,0,0,0,0,0,0,0,0,0],"trees":[{"base_weights":[-1.7719308E0,-1.695504E0,-1.8318318E0,-1.7617179E0,-1.6629748E0,-1.807204E0,-1.9211015E0,-1.8651758E0,-1.7403959E0,-1.7936171E0,-1.6479717E0,-1.8358276E0,-1.7533178E0,-1.8913743E0,-1.9508171E0,-1.8894079E0,-1.8487587E0,-1.8269172E0,-1.727109E0,-1.8381784E0,-1.7660059E0,-1.742089E0,-1.631724E0,-1.8977941E0,-1.8273431E0,-1.8619016E0,-1.7439647E0,-1.9041283E0,-1.8561991E0,-1.9358151E0,-1.9657958E0,-1.9254006E0,-1.8818675E0,-1.8429562E0,-1.9004563E0,-1.8492401E0,-1.6666207E0,-1.6994778E0,-1.7722491E0,-1.9020855E0,-1.8245162E0,-1.8062888E0,-1.723435E0,-1.7649843E0,-1.6583172E0,-1.6220523E0,-1.7766453E0,-1.9315236E0,-1.889778E0,-1.8214653E0,-1.8839242E0,-1.8875532E0,-1.8352848E0,-1.7277313E0,-1.8273923E0,-1.939326E0,-1.8974603E0,-1.90625E0,-1.8476808E0,-1.9428681E0,-1.9122303E0,-1.9572039E0,-1.974341E0],"categories":[],"categories_nodes":[],"categories_segments":[],"categories_sizes":[],"default_left":[false,false,false,false,false,false,false,false,false,false,false,false,false,false,false,false,false,false,false,false,false,false,false,false,false,false,false,false,false,false,false,false,false,false,false,false,false,false,false,false,false,false,false,false,false,false,false,false,false,false,false,false,false,false,false,false,false,false,false,false,false,false,false],"id":0,"left_children":[1,3,5,7,9,11,13,15,17,19,21,23,25,27,29,31,33,35,37,39,41,43,45,47,49,51,53,55,57,59,61,-1,-1,-1,-1,-1,-1,-1,-1,-1,-1,-1,-1,-1,-1,-1,-1,-1,-1,-1,-1,-1,-1,-1,-1,-1,-1,-1,-1,-1,-1,-1,-1],"loss_changes":[1.2725953E4,2.6285042E3,3.4234424E3,8.8454144E2,1.602834E3,1.8811722E3,2.9402753E2,2.3859755E1,3.8046802E2,1.0057663E2,1.1209333E3,4.1600967E2,4.2721637E2,7.206525E1,3.4061428E1,3.9007254E0,8.806596E0,1.558169E2,3.5781903E2,2.4694231E1,8.6275505E1,2.0454626E2,8.755333E2,2.2322512E1,2.2997685E2,1.947614E1,5.2536273E2,2.5336964E1,1.5612969E1,1.0300582E1,2.3220494E0,0E0,0E0,0E0,0E0,0E0,0E0,0E0,0E0,0E0,0E0,0E0,0E0,0E0,0E0,0E0,0E0,0E0,0E0,0E0,0E0,0E0,0E0,0E0,0E0,0E0,0E0,0E0,0E0,0E0,0E0,0E0,0E0],"parents":[2147483647,0,0,1,1,2,2,3,3,4,4,5,5,6,6,7,7,8,8,9,9,10,10,11,11,12,12,13,13,14,14,15,15,16,16,17,17,18,18,19,19,20,20,21,21,22,22,23,23,24,24,25,25,26,26,27,27,28,28,29,29,30,30],"right_children":[2,4,6,8,10,12,14,16,18,20,22,24,26,28,30,32,34,36,38,40,42,44,46,48,50,52,54,56,58,60,62,-1,-1,-1,-1,-1,-1,-1,-1,-1,-1,-1,-1,-1,-1,-1,-1,-1,-1,-1,-1,-1,-1,-1,-1,-1,-1,-1,-1,-1,-1,-1,-1],"split_conditions":[2.1006424E0,1.4099021E-1,3.2231896E0,6.152244E-2,5.136718E0,7.03124E-1,3.5425234E0,3.8E1,4.5873922E-1,6.0742086E-1,4.5873922E-1,4.5873922E-1,4.558593E0,8.540029E-1,3.8531034E0,1.0158029E0,1.5781249E1,6.184375E1,1.6481825E0,4.68749E-1,4.183593E0,5.6125E1,1.7499998E1,3.7890524E-1,1.5781249E1,3.7050772E0,1.3382812E1,4.68749E-1,4.68749E-1,8.74999E-1,4.1365447E0,-4.4926015E-1,-4.391024E-1,-4.300231E-1,-4.434398E-1,-4.3148935E-1,-3.8887817E-1,-3.965448E-1,-4.135248E-1,-4.4381997E-1,-4.2572045E-1,-4.214674E-1,-4.0213484E-1,-4.1182965E-1,-3.869407E-1,-3.7847888E-1,-4.1455057E-1,-4.5068884E-1,-4.4094822E-1,-4.2500857E-1,-4.3958232E-1,-4.404291E-1,-4.2823312E-1,-4.0313733E-1,-4.2639154E-1,-4.525094E-1,-4.4274074E-1,-4.4479167E-1,-4.3112552E-1,-4.5333588E-1,-4.4618705E-1,-4.566809E-1,-4.606796E-1],"split_indices":[13,15,13,15,7,15,13,8,20,15,20,20,7,15,13,13,7,8,13,20,7,8,7,20,7,7,7,20,20,15,13,0,0,0,0,0,0,0,0,0,0,0,0,0,0,0,0,0,0,0,0,0,0,0,0,0,0,0,0,0,0,0,0],"split_type":[0,0,0,0,0,0,0,0,0,0,0,0,0,0,0,0,0,0,0,0,0,0,0,0,0,0,0,0,0,0,0,0,0,0,0,0,0,0,0,0,0,0,0,0,0,0,0,0,0,0,0,0,0,0,0,0,0,0,0,0,0,0,0],"sum_hessian":[2.7804578E6,1.221716E6,1.5587418E6,4.0245475E5,8.1926125E5,1.2217152E6,3.370265E5,6.875525E4,3.336995E5,8.4381E4,7.3488025E5,7.9786725E5,4.23848E5,1.685135E5,1.68513E5,2.77225E4,4.103275E4,4.44055E4,2.89294E5,3.225675E4,5.212425E4,1.08172E5,6.2670825E5,9.606E4,7.0180725E5,3.359825E4,3.9024975E5,1.23633E5,4.48805E4,8.42555E4,8.42575E4,4.75775E3,2.296475E4,3.6925E4,4.10775E3,3.896825E4,5.43725E3,1.7947325E5,1.0982075E5,5.657E3,2.659975E4,2.67605E4,2.536375E4,8.4938E4,2.3234E4,5.875115E5,3.919675E4,1.83995E4,7.76605E4,6.35791E5,6.601625E4,1.707375E4,1.65245E4,3.26702E5,6.354775E4,1.9645E4,1.03988E5,6.495E3,3.83855E4,6.47965E4,1.9459E4,4.2129E4,4.21285E4],"tree_param":{"num_deleted":"0","num_feature":"21","num_nodes":"63","size_leaf_vector":"0"}},{"base_weights":[-1.7719308E0,-1.626632E0,-1.8306677E0,-1.7931259E0,-1.5952384E0,-1.8086747E0,-1.923522E0,-1.874482E0,-1.7412767E0,-1.6913166E0,-1.5449308E0,-1.8378128E0,-1.7507704E0,-1.8995452E0,-1.9534816E0,-1.8480291E0,-1.9242254E0,-1.7015994E0,-1.8484342E0,-1.8469932E0,-1.6599878E0,-1.513107E0,-1.6184059E0,-1.8205882E0,-1.8778198E0,-1.7092135E0,-1.8145428E0,-1.913043E0,-1.8678871E0,-1.9400406E0,-1.9668992E0,-1.8923304E0,-1.8058996E0,-1.9095428E0,-1.9506987E0,-1.7884895E0,-1.6758186E0,-1.8133571E0,-1.9148465E0,-1.8941542E0,-1.8284051E0,-1.6120131E0,-1.7400517E0,-1.6415341E0,-1.4784684E0,-1.5913188E0,-1.8203087E0,-1.891611E0,-1.8107549E0,-1.8654801E0,-1.9187386E0,-1.7989409E0,-1.6955842E0,-1.794392E0,-1.8612906E0,-1.90184E0,-1.9294238E0,-1.8406168E0,-1.8910673E0,-1.9472337E0,-1.9178264E0,-1.9580574E0,-1.9756942E0],"categories":[],"categories_nodes":[],"categories_segments":[],"categories_sizes":[],"default_left":[false,false,false,false,false,false,false,false,false,false,false,false,false,false,false,false,false,false,false,false,false,false,false,false,false,false,false,false,false,false,false,false,false,false,false,false,false,false,false,false,false,false,false,false,false,false,false,false,false,false,false,false,false,false,false,false,false,false,false,false,false,false,false],"id":1,"left_children":[1,3,5,7,9,11,13,15,17,19,21,23,25,27,29,31,33,35,37,39,41,43,45,47,49,51,53,55,57,59,61,-1,-1,-1,-1,-1,-1,-1,-1,-1,-1,-1,-1,-1,-1,-1,-1,-1,-1,-1,-1,-1,-1,-1,-1,-1,-1,-1,-1,-1,-1,-1,-1],"loss_changes":[2.3726584E4,4.1808794E3,4.0400176E3,5.32351E2,3.2525376E3,2.6977986E3,2.68649E2,6.1462105E1,3.2664255E2,1.1256763E3,1.0311246E3,7.3043787E2,1.4171941E3,8.643712E1,2.6574903E1,5.6834415E1,2.9333653E0,1.23833176E2,4.5327087E1,3.0517706E1,7.37259E2,1.369728E3,7.276277E2,5.1650446E2,1.5823671E2,3.9378064E2,1.9582642E2,2.3423977E1,3.634769E1,9.728873E0,2.6836216E0,0E0,0E0,0E0,0E0,0E0,0E0,0E0,0E0,0E0,0E0,0E0,0E0,0E0,0E0,0E0,0E0,0E0,0E0,0E0,0E0,0E0,0E0,0E0,0E0,0E0,0E0,0E0,0E0,0E0,0E0,0E0,0E0],"parents":[2147483647,0,0,1,1,2,2,3,3,4,4,5,5,6,6,7,7,8,8,9,9,10,10,11,11,12,12,13,13,14,14,15,15,16,16,17,17,18,18,19,19,20,20,21,21,22,22,23,23,24,24,25,25,26,26,27,27,28,28,29,29,30,30],"right_children":[2,4,6,8,10,12,14,16,18,20,22,24,26,28,30,32,34,36,38,40,42,44,46,48,50,52,54,56,58,60,62,-1,-1,-1,-1,-1,-1,-1,-1,-1,-1,-1,-1,-1,-1,-1,-1,-1,-1,-1,-1,-1,-1,-1,-1,-1,-1,-1,-1,-1,-1,-1,-1],"split_conditions":[1.7704915E0,5.984374E0,3.2188926E0,4.558593E0,1.4099021E-1,7.524404E-1,3.5606163E0,5.6E1,5.940625E1,6.152244E-2,1.4244019E0,8.10625E1,7.1375E1,7.9296774E-1,3.8470824E0,3.7050772E0,7.25625E1,9.114302E-1,7.65E1,5.1125E1,1.364331E0,5.034375E1,9.0625E1,4.5873922E-1,1.33625E2,4.8671865E0,1.089375E2,3.3871403E0,9.203124E0,8.540029E-1,4.114166E0,-4.4154376E-1,-4.213766E-1,-4.4555998E-1,-4.5516303E-1,-4.173142E-1,-3.9102432E-1,-4.2311665E-1,-4.4679752E-1,-4.419693E-1,-4.2662787E-1,-3.761364E-1,-4.060121E-1,-3.8302463E-1,-3.4497598E-1,-3.7130773E-1,-4.247387E-1,-4.413759E-1,-4.225095E-1,-4.3527868E-1,-4.477057E-1,-4.1975287E-1,-3.9563632E-1,-4.1869146E-1,-4.3430114E-1,-4.4376266E-1,-4.501989E-1,-4.2947727E-1,-4.4124904E-1,-4.5435452E-1,-4.4749284E-1,-4.5688006E-1,-4.6099532E-1],"split_indices":[12,7,12,7,15,15,12,4,4,15,12,4,4,15,12,7,4,12,4,4,12,4,4,20,4,7,4,12,7,15,12,0,0,0,0,0,0,0,0,0,0,0,0,0,0,0,0,0,0,0,0,0,0,0,0,0,0,0,0,0,0,0,0],"split_type":[0,0,0,0,0,0,0,0,0,0,0,0,0,0,0,0,0,0,0,0,0,0,0,0,0,0,0,0,0,0,0,0,0,0,0,0,0,0,0,0,0,0,0,0,0,0,0,0,0,0,0,0,0,0,0,0,0,0,0,0,0,0,0],"sum_hessian":[2.7804578E6,8.004345E5,1.9800232E6,1.2697475E5,6.7345975E5,1.6008695E6,3.7915375E5,4.941025E4,7.75645E4,2.314335E5,4.4202625E5,1.064947E6,5.359225E5,2.10641E5,1.6851275E5,3.22815E4,1.712875E4,5.66175E4,2.0947E4,3.8762E4,1.926715E5,3.0845075E5,1.335755E5,7.4447075E5,3.2047625E5,3.2449475E5,2.1142775E5,1.4763525E5,6.300575E4,8.4256E4,8.425675E4,1.571375E4,1.656775E4,1.1065E4,6.06375E3,1.293925E4,4.367825E4,1.372575E4,7.22125E3,1.093E4,2.7832E4,1.2049275E5,7.217875E4,6.55115E4,2.4293925E5,1.1778275E5,1.579275E4,9.05155E4,6.5395525E5,2.4626E5,7.421625E4,4.27725E4,2.8172225E5,1.477705E5,6.365725E4,8.77435E4,5.989175E4,2.898575E4,3.402E4,6.358125E4,2.067475E4,4.2128E4,4.212875E4],"tree_param":{"num_deleted":"0","num_feature":"21","num_nodes":"63","size_leaf_vector":"0"}},{"base_weights":[-1.7719308E0,-1.626632E0,-1.8306677E0,-1.4049523E0,-1.7255918E0,-1.8086747E0,-1.923522E0,-1.6047144E0,-1.1973022E0,-1.6877105E0,-1.886446E0,-1.7591403E0,-1.8548247E0,-1.8995452E0,-1.9534816E0,-1.7217076E0,-1.4318459E0,-9.730917E-1,-1.4442493E0,-1.7602245E0,-1.6381491E0,-1.8423029E0,-1.9483618E0,-1.7163107E0,-1.8226491E0,-1.8366581E0,-1.918146E0,-1.884056E0,-1.9292483E0,-1.9400406E0,-1.9668992E0,-1.8347634E0,-1.6361297E0,-1.7134523E0,-1.3119956E0,-1.5803074E0,-9.03343E-1,-1.2970165E0,-1.5666854E0,-1.8801336E0,-1.7184223E0,-1.8183348E0,-1.6097294E0,-1.8009199E0,-1.9068897E0,-1.9257278E0,-1.9643706E0,-1.7874007E0,-1.6593522E0,-1.8505495E0,-1.7715952E0,-1.8090596E0,-1.8808597E0,-1.8972322E0,-1.9657413E0,-1.8989791E0,-1.8475136E0,-1.8809571E0,-1.9419364E0,-1.9287053E0,-1.9589053E0,-1.9593428E0,-1.9775581E0],"categories":[],"categories_nodes":[],"categories_segments":[],"categories_sizes":[],"default_left":[false,false,false,false,false,false,false,false,false,false,false,false,false,false,false,false,false,false,false,false,false,false,false,false,false,false,false,false,false,false,false,false,false,false,false,false,false,false,false,false,false,false,false,false,false,false,false,false,false,false,false,false,false,false,false,false,false,false,false,false,false,false,false],"id":2,"left_children":[1,3,5,7,9,11,13,15,17,19,21,23,25,27,29,31,33,35,37,39,41,43,45,47,49,51,53,55,57,59,61,-1,-1,-1,-1,-1,-1,-1,-1,-1,-1,-1,-1,-1,-1,-1,-1,-1,-1,-1,-1,-1,-1,-1,-1,-1,-1,-1,-1,-1,-1,-1,-1],"loss_changes":[2.3726584E4,1.7557018E4,4.0400176E3,1.0245691E4,3.3688206E3,3.6563535E3,2.68649E2,2.5440247E3,6.7056255E3,1.6068846E3,2.846875E2,2.0971418E3,9.4978986E2,9.327691E1,2.6574903E1,7.234658E2,1.7131603E3,2.6876802E3,1.0370723E3,9.082205E2,1.359636E3,1.6119048E2,1.2117597E1,1.8643815E3,4.3968454E2,7.8221124E2,1.8015195E2,7.2013466E1,4.055742E1,1.4239143E1,2.911553E0,0E0,0E0,0E0,0E0,0E0,0E0,0E0,0E0,0E0,0E0,0E0,0E0,0E0,0E0,0E0,0E0,0E0,0E0,0E0,0E0,0E0,0E0,0E0,0E0,0E0,0E0,0E0,0E0,0E0,0E0,0E0,0E0],"parents":[2147483647,0,0,1,1,2,2,3,3,4,4,5,5,6,6,7,7,8,8,9,9,10,10,11,11,12,12,13,13,14,14,15,15,16,16,17,17,18,18,19,19,20,20,21,21,22,22,23,23,24,24,25,25,26,26,27,27,28,28,29,29,30,30],"right_children":[2,4,6,8,10,12,14,16,18,20,22,24,26,28,30,32,34,36,38,40,42,44,46,48,50,52,54,56,58,60,62,-1,-1,-1,-1,-1,-1,-1,-1,-1,-1,-1,-1,-1,-1,-1,-1,-1,-1,-1,-1,-1,-1,-1,-1,-1,-1,-1,-1,-1,-1,-1,-1],"split_conditions":[1.7704915E0,1.835316E0,3.2188926E0,6.11875E1,3.173025E0,2.1435006E0,3.5606163E0,1.2007812E1,1.1789882E0,1.8762107E-1,3.158083E0,7.1375E1,2.6622434E0,1.6187498E1,3.8470824E0,1.6318918E0,1.2477514E0,7.046874E0,1.8076786E0,7.4257803E0,5.3789053E0,3.4384687E0,3.5425234E0,2.1728416E-1,7.524404E-1,1.4335937E1,7.25625E1,7.9296774E-1,1.2465075E0,1.5507812E1,1.4601562E1,-4.2811146E-1,-3.817636E-1,-3.9980555E-1,-3.0613232E-1,-3.6873838E-1,-2.1078004E-1,-3.026372E-1,-3.6555994E-1,-4.3869784E-1,-4.009652E-1,-4.2427814E-1,-3.7560353E-1,-4.2021465E-1,-4.4494092E-1,-4.493365E-1,-4.5835313E-1,-4.1706017E-1,-3.8718218E-1,-4.3179488E-1,-4.1337222E-1,-4.2211393E-1,-4.3886727E-1,-4.426875E-1,-4.5867297E-1,-4.4309512E-1,-4.310865E-1,-4.3889E-1,-4.531185E-1,-4.5003125E-1,-4.5707792E-1,-4.5718E-1,-4.6143022E-1],"split_indices":[12,13,12,4,13,13,12,3,12,17,14,4,14,3,12,14,14,11,14,3,11,13,13,17,17,3,4,17,13,3,3,0,0,0,0,0,0,0,0,0,0,0,0,0,0,0,0,0,0,0,0,0,0,0,0,0,0,0,0,0,0,0,0],"split_type":[0,0,0,0,0,0,0,0,0,0,0,0,0,0,0,0,0,0,0,0,0,0,0,0,0,0,0,0,0,0,0,0,0,0,0,0,0,0,0,0,0,0,0,0,0,0,0,0,0,0,0,0,0,0,0,0,0,0,0,0,0,0,0],"sum_hessian":[2.7804578E6,8.004345E5,1.9800232E6,2.4704475E5,5.5338975E5,1.6008695E6,3.7915375E5,1.259105E5,1.2113425E5,4.4791675E5,1.05473E5,7.7214125E5,8.2872825E5,2.10641E5,1.6851275E5,7.50855E4,5.0825E4,6.34925E4,5.764175E4,1.8183575E5,2.66081E5,6.159175E4,4.388125E4,4.611655E5,3.1097575E5,6.43998E5,1.8473025E5,1.3848825E5,7.215275E4,8.4256E4,8.425675E4,3.23405E4,4.2745E4,1.516925E4,3.565575E4,6.5395E3,5.6953E4,2.6176E4,3.146575E4,4.6993E4,1.3484275E5,3.62415E4,2.298395E5,3.755675E4,2.4035E4,1.822925E4,2.5652E4,2.05122E5,2.560435E5,2.0106225E5,1.099135E5,3.96484E5,2.47514E5,1.28366E5,5.636425E4,9.82955E4,4.019275E4,1.5044E4,5.710875E4,5.269575E4,3.156025E4,4.941225E4,3.48445E4],"tree_param":{"num_deleted":"0","num_feature":"21","num_nodes":"63","size_leaf_vector":"0"}},{"base_weights":[-9.6340877E-1,-8.6707354E-1,-1.0343915E0,-9.5247376E-1,-8.3353364E-1,-9.8962706E-1,-1.1363739E0,-1.0715473E0,-9.2337555E-1,-8.184171E-1,-1.0189157E0,-9.5632577E-1,-1.1444159E0,-1.1002865E0,-1.1872327E0,-1.1052202E0,-1.0475522E0,-1.0346317E0,-9.064652E-1,-9.446104E-1,-7.9216284E-1,-8.983087E-1,-1.1464564E0,-1.0002179E0,-8.8573813E-1,-1.1059258E0,-1.1953673E0,-1.0787151E0,-1.1765437E0,-1.1709567E0,-1.2122039E0,-1.1594594E0,-1.0932931E0,-1.0305792E0,-1.1257381E0,-1.0644091E0,-7.8180987E-1,-8.7835604E-1,-9.67177E-1,-9.671871E-1,-7.6567835E-1,-9.514395E-1,-7.758042E-1,-5.337297E-1,-9.54438E-1,-9.744591E-1,-1.1764526E0,-1.1240323E0,-9.9068373E-1,-8.487105E-1,-9.317307E-1,-1.1252223E0,-1.0576367E0,-1.1817869E0,-1.2220062E0,-1.1486698E0,-1.068739E0,-1.1556685E0,-1.2121345E0,-1.161522E0,-1.2143719E0,-1.2307031E0,-1.2048188E0],"categories":[],"categories_nodes":[],"categories_segments":[],"categories_sizes":[],"default_left":[false,false,false,false,false,false,false,false,false,false,false,false,false,false,false,false,false,false,false,false,false,false,false,false,false,false,false,false,false,false,false,false,false,false,false,false,false,false,false,false,false,false,false,false,false,false,false,false,false,false,false,false,false,false,false,false,false,false,false,false,false,false,false],"id":3,"left_children":[1,3,5,7,9,11,13,15,17,19,21,23,25,27,29,31,33,35,37,39,41,43,45,47,49,51,53,55,57,59,61,-1,-1,-1,-1,-1,-1,-1,-1,-1,-1,-1,-1,-1,-1,-1,-1,-1,-1,-1,-1,-1,-1,-1,-1,-1,-1,-1,-1,-1,-1,-1,-1],"loss_changes":[1.3232226E4,2.3507815E3,5.085426E3,8.0113245E2,1.6511123E3,3.9903142E3,6.2248975E2,3.557069E1,3.490897E2,1.8050548E3,6.82564E2,1.97344E3,2.6752844E2,3.2579022E2,5.590901E1,1.0956516E1,3.4088863E1,1.8391585E2,2.7477414E2,3.7843338E2,1.174852E3,4.6699402E2,1.1027168E2,4.6270538E2,4.1530228E2,7.159224E1,1.9893728E1,1.06938E2,3.1163177E1,3.3580128E1,6.1173615E0,0E0,0E0,0E0,0E0,0E0,0E0,0E0,0E0,0E0,0E0,0E0,0E0,0E0,0E0,0E0,0E0,0E0,0E0,0E0,0E0,0E0,0E0,0E0,0E0,0E0,0E0,0E0,0E0,0E0,0E0,0E0,0E0],"parents":[2147483647,0,0,1,1,2,2,3,3,4,4,5,5,6,6,7,7,8,8,9,9,10,10,11,11,12,12,13,13,14,14,15,15,16,16,17,17,18,18,19,19,20,20,21,21,22,22,23,23,24,24,25,25,26,26,27,27,28,28,29,29,30,30],"right_children":[2,4,6,8,10,12,14,16,18,20,22,24,26,28,30,32,34,36,38,40,42,44,46,48,50,52,54,56,58,60,62,-1,-1,-1,-1,-1,-1,-1,-1,-1,-1,-1,-1,-1,-1,-1,-1,-1,-1,-1,-1,-1,-1,-1,-1,-1,-1,-1,-1,-1,-1,-1,-1],"split_conditions":[2.0352206E0,1.2213035E-1,1.3075E2,6.2468484E-2,2.20125E2,3.2664664E0,1.8725E2,3.840625E1,4.5873922E-1,4.68749E-1,1.1815997E0,6.240224E-1,3.6537526E0,3.2078607E0,2.6E2,1.0082481E0,1.5175E2,6.55625E1,1.67692E0,6.353125E1,5.884375E1,4.387197E-1,4.4872946E-1,4.5873922E-1,8.96875E1,8.359365E-1,4.1172233E0,4.5873922E-1,3.6537526E0,3.3357584E0,4.253125E1,-2.705405E-1,-2.551017E-1,-2.4046849E-1,-2.6267225E-1,-2.4836214E-1,-1.8242231E-1,-2.0494974E-1,-2.2567463E-1,-2.25677E-1,-1.7865828E-1,-2.2200255E-1,-1.8102099E-1,-1.24536924E-1,-2.2270219E-1,-2.273738E-1,-2.7450562E-1,-2.622742E-1,-2.3115954E-1,-1.9803244E-1,-2.1740383E-1,-2.6255187E-1,-2.467819E-1,-2.7575028E-1,-2.851348E-1,-2.6802295E-1,-2.4937245E-1,-2.6965597E-1,-2.8283137E-1,-2.710218E-1,-2.8335345E-1,-2.8716406E-1,-2.811244E-1],"split_indices":[13,15,0,15,0,13,0,8,20,20,13,15,13,13,0,13,0,8,13,8,0,19,19,19,0,15,13,20,13,13,8,0,0,0,0,0,0,0,0,0,0,0,0,0,0,0,0,0,0,0,0,0,0,0,0,0,0,0,0,0,0,0,0],"split_type":[0,0,0,0,0,0,0,0,0,0,0,0,0,0,0,0,0,0,0,0,0,0,0,0,0,0,0,0,0,0,0,0,0,0,0,0,0,0,0,0,0,0,0,0,0,0,0,0,0,0,0,0,0,0,0,0,0,0,0,0,0,0,0],"sum_hessian":[1.9351936E6,8.2098956E5,1.114204E6,2.3150303E5,5.8948656E5,7.7432875E5,3.3987528E5,4.5455945E4,1.8604708E5,5.4504725E5,4.443931E4,6.3724006E5,1.3708864E5,1.9882186E5,1.410534E5,1.8894982E4,2.6560963E4,2.4539219E4,1.6150786E5,9.3860945E4,4.5118628E5,2.2844646E4,2.1594662E4,3.9291088E5,2.4432919E5,7.8107195E4,5.8981453E4,1.5499302E5,4.382885E4,8.542328E4,5.5630117E4,3.3886653E3,1.5506317E4,2.1835074E4,4.725888E3,2.1950654E4,2.588563E3,1.1040614E5,5.1101723E4,8.334101E4,1.0519938E4,4.201807E4,4.0916822E5,3.0492476E3,1.9795398E4,3.2118079E3,1.8382855E4,2.8084006E4,3.6482688E5,1.353672E5,1.0896199E5,5.5790633E4,2.2316564E4,3.9095797E4,1.9885654E4,1.9330127E4,1.3566289E5,2.7646615E4,1.6182236E4,7.0196375E4,1.5226908E4,1.5824406E4,3.980571E4],"tree_param":{"num_deleted":"0","num_feature":"21","num_nodes":"63","size_leaf_vector":"0"}},{"base_weights":[-9.6340877E-1,-8.6707354E-1,-1.0343915E0,-1.0005178E0,-8.5090744E-1,-9.8962706E-1,-1.1363739E0,-1.0578341E0,-9.6207565E-1,-8.3697E-1,-1.0265517E0,-9.5632577E-1,-1.1444159E0,-1.1002865E0,-1.1872327E0,-1.1408837E0,-1.0211918E0,-8.20246E-1,-9.8008984E-1,-9.7268975E-1,-8.1560236E-1,-9.010138E-1,-1.1529068E0,-1.0596212E0,-9.4470847E-1,-1.1059258E0,-1.1953673E0,-1.0787151E0,-1.1765437E0,-1.1709567E0,-1.2122039E0,-1.1764264E0,-1.1049535E0,-1.1012998E0,-9.8924637E-1,-1.0061568E0,-7.584173E-1,-1.0655439E0,-9.639181E-1,-1.0196915E0,-8.887246E-1,-7.861176E-1,-8.817386E-1,-8.1429714E-1,-1.0419073E0,-1.0908262E0,-1.1920341E0,-1.1004511E0,-1.0423619E0,-1.0391598E0,-9.334092E-1,-1.0830635E0,-1.1288719E0,-1.1817869E0,-1.2220062E0,-1.1486698E0,-1.068739E0,-1.1556685E0,-1.2121345E0,-1.161522E0,-1.2143719E0,-1.2296001E0,-1.205314E0],"categories":[],"categories_nodes":[],"categories_segments":[],"categories_sizes":[],"default_left":[false,false,false,false,false,false,false,false,false,false,false,false,false,false,false,false,false,false,false,false,false,false,false,false,false,false,false,false,false,false,false,false,false,false,false,false,false,false,false,false,false,false,false,false,false,false,false,false,false,false,false,false,false,false,false,false,false,false,false,false,false,false,false],"id":4,"left_children":[1,3,5,7,9,11,13,15,17,19,21,23,25,27,29,31,33,35,37,39,41,43,45,47,49,51,53,55,57,59,61,-1,-1,-1,-1,-1,-1,-1,-1,-1,-1,-1,-1,-1,-1,-1,-1,-1,-1,-1,-1,-1,-1,-1,-1,-1,-1,-1,-1,-1,-1,-1,-1],"loss_changes":[1.3232226E4,1.7702498E3,5.085426E3,1.9443419E2,1.7918071E3,3.9903142E3,6.2248975E2,1.07172966E2,1.3487978E2,1.966729E3,8.5284863E2,7.6369934E2,2.6752844E2,3.2579022E2,5.590901E1,1.2607623E1,6.2149883E1,6.810276E1,6.408458E1,3.6328018E2,1.1423562E3,3.2912296E2,6.3858276E1,4.4245846E1,6.1036707E2,3.975295E1,1.9893728E1,1.06938E2,3.1163177E1,3.3580128E1,5.1857014E0,0E0,0E0,0E0,0E0,0E0,0E0,0E0,0E0,0E0,0E0,0E0,0E0,0E0,0E0,0E0,0E0,0E0,0E0,0E0,0E0,0E0,0E0,0E0,0E0,0E0,0E0,0E0,0E0,0E0,0E0,0E0,0E0],"parents":[2147483647,0,0,1,1,2,2,3,3,4,4,5,5,6,6,7,7,8,8,9,9,10,10,11,11,12,12,13,13,14,14,15,15,16,16,17,17,18,18,19,19,20,20,21,21,22,22,23,23,24,24,25,25,26,26,27,27,28,28,29,29,30,30],"right_children":[2,4,6,8,10,12,14,16,18,20,22,24,26,28,30,32,34,36,38,40,42,44,46,48,50,52,54,56,58,60,62,-1,-1,-1,-1,-1,-1,-1,-1,-1,-1,-1,-1,-1,-1,-1,-1,-1,-1,-1,-1,-1,-1,-1,-1,-1,-1,-1,-1,-1,-1,-1,-1],"split_conditions":[2.0352206E0,5.402343E0,1.3075E2,7.78125E1,2.20125E2,3.2664664E0,1.8725E2,1.1815997E0,3.99375E1,4.5873922E-1,1.1815997E0,4.5873922E-1,3.6537526E0,3.2078607E0,2.6E2,8.7679374E-1,3.7304678E0,3.7304678E0,4.68749E-1,1.200625E2,1.67692E0,1.43625E2,1.5358855E0,3.9892477E-1,5.1601553E0,3.4195714E0,4.1172233E0,4.5873922E-1,3.6537526E0,3.3357584E0,1.0203124E1,-2.744995E-1,-2.5782248E-1,-2.5696996E-1,-2.3082416E-1,-2.3476993E-1,-1.7696404E-1,-2.486269E-1,-2.2491422E-1,-2.37928E-1,-2.0736907E-1,-1.8342744E-1,-2.05739E-1,-1.9000266E-1,-2.431117E-1,-2.545261E-1,-2.781413E-1,-2.5677192E-1,-2.4321777E-1,-2.4247062E-1,-2.1779549E-1,-2.527148E-1,-2.6340345E-1,-2.7575028E-1,-2.851348E-1,-2.6802295E-1,-2.4937245E-1,-2.6965597E-1,-2.8283137E-1,-2.710218E-1,-2.8335345E-1,-2.869067E-1,-2.8123996E-1],"split_indices":[13,11,0,0,0,13,0,13,4,20,13,20,13,13,0,13,11,11,20,0,13,4,13,20,11,13,13,20,13,13,11,0,0,0,0,0,0,0,0,0,0,0,0,0,0,0,0,0,0,0,0,0,0,0,0,0,0,0,0,0,0,0,0],"split_type":[0,0,0,0,0,0,0,0,0,0,0,0,0,0,0,0,0,0,0,0,0,0,0,0,0,0,0,0,0,0,0,0,0,0,0,0,0,0,0,0,0,0,0,0,0,0,0,0,0,0,0,0,0,0,0,0,0,0,0,0,0,0,0],"sum_hessian":[1.9351936E6,8.2098956E5,1.114204E6,8.870522E4,7.322844E5,7.7432875E5,3.3987528E5,3.559996E4,5.3105258E4,6.784543E5,5.383007E4,6.3724006E5,1.3708864E5,1.9882186E5,1.410534E5,1.0889289E4,2.4710674E4,5.9901387E3,4.7115117E4,9.227968E4,5.861746E5,2.700641E4,2.6823658E4,6.4413938E4,5.728261E5,7.8107195E4,5.8981453E4,1.5499302E5,4.382885E4,8.542328E4,5.5630117E4,5.458199E3,5.43109E3,7.0352646E3,1.7675408E4,1.4911553E3,4.4989834E3,7.4871265E3,3.9627992E4,5.9154945E4,3.3124734E4,4.054363E5,1.807383E5,1.67215E4,1.028491E4,1.0381286E4,1.6442373E4,1.9119838E4,4.5294098E4,6.1195605E4,5.1163053E5,3.9149188E4,3.895801E4,3.9095797E4,1.9885654E4,1.9330127E4,1.3566289E5,2.7646615E4,1.6182236E4,7.0196375E4,1.5226908E4,1.5731531E4,3.9898586E4],"tree_param":{"num_deleted":"0","num_feature":"21","num_nodes":"63","size_leaf_vector":"0"}},{"base_weights":[-9.6340877E-1,-8.064679E-1,-1.0418783E0,-5.536292E-1,-9.151478E-1,-1.0116266E0,-1.1447301E0,-8.031179E-1,-3.6014327E-1,-8.737106E-1,-1.1280686E0,-9.559829E-1,-1.0706108E0,-1.1044346E0,-1.1850178E0,-9.557139E-1,-6.135744E-1,-1.2127334E-1,-6.407661E-1,-1.0816941E0,-8.4852797E-1,-1.0704064E0,-1.1964338E0,-8.937081E-1,-1.0233138E0,-1.048806E0,-1.1592574E0,-1.0808192E0,-1.1499918E0,-1.1594386E0,-1.2020568E0,-1.1069787E0,-8.8876265E-1,-9.167324E-1,-5.190473E-1,-3.8142288E-1,8.3794795E-2,-5.822812E-1,-9.866788E-1,-1.1355864E0,-9.1883373E-1,-8.130442E-1,-1.0200132E0,-1.1035011E0,-1.0148709E0,-1.1488047E0,-1.2144432E0,-9.5967066E-1,-8.010863E-1,-1.0009625E0,-1.1186645E0,-1.0123976E0,-1.1029615E0,-1.1316373E0,-1.199454E0,-1.1041176E0,-1.0346372E0,-1.0842155E0,-1.1697434E0,-1.1425294E0,-1.1897388E0,-1.1912177E0,-1.2236941E0],"categories":[],"categories_nodes":[],"categories_segments":[],"categories_sizes":[],"default_left":[false,false,false,false,false,false,false,false,false,false,false,false,false,false,false,false,false,false,false,false,false,false,false,false,false,false,false,false,false,false,false,false,false,false,false,false,false,false,false,false,false,false,false,false,false,false,false,false,false,false,false,false,false,false,false,false,false,false,false,false,false,false,false],"id":5,"left_children":[1,3,5,7,9,11,13,15,17,19,21,23,25,27,29,31,33,35,37,39,41,43,45,47,49,51,53,55,57,59,61,-1,-1,-1,-1,-1,-1,-1,-1,-1,-1,-1,-1,-1,-1,-1,-1,-1,-1,-1,-1,-1,-1,-1,-1,-1,-1,-1,-1,-1,-1,-1,-1],"loss_changes":[2.3831248E4,1.7724895E4,4.0130085E3,9.36083E3,3.9793845E3,3.2709607E3,4.7469644E2,2.4493013E3,7.321273E3,1.9770643E3,2.8843054E2,2.1500789E3,9.341766E2,1.5648387E2,6.2504025E1,4.7421945E2,1.0821819E3,3.1476394E3,1.01543335E3,3.5691385E2,2.049005E3,7.216951E1,2.7440474E1,1.6275016E3,5.2418915E2,7.646986E2,1.0469729E2,1.0276611E2,6.3737583E1,2.8686472E1,1.9172644E1,0E0,0E0,0E0,0E0,0E0,0E0,0E0,0E0,0E0,0E0,0E0,0E0,0E0,0E0,0E0,0E0,0E0,0E0,0E0,0E0,0E0,0E0,0E0,0E0,0E0,0E0,0E0,0E0,0E0,0E0,0E0,0E0],"parents":[2147483647,0,0,1,1,2,2,3,3,4,4,5,5,6,6,7,7,8,8,9,9,10,10,11,11,12,12,13,13,14,14,15,15,16,16,17,17,18,18,19,19,20,20,21,21,22,22,23,23,24,24,25,25,26,26,27,27,28,28,29,29,30,30],"right_children":[2,4,6,8,10,12,14,16,18,20,22,24,26,28,30,32,34,36,38,40,42,44,46,48,50,52,54,56,58,60,62,-1,-1,-1,-1,-1,-1,-1,-1,-1,-1,-1,-1,-1,-1,-1,-1,-1,-1,-1,-1,-1,-1,-1,-1,-1,-1,-1,-1,-1,-1,-1,-1],"split_conditions":[1.8957694E0,1.7688951E0,3.1642046E0,5.7625E1,3.2078607E0,2.206403E0,3.4448962E0,1.1414062E1,1.2745318E0,6.874999E0,3.5224674E0,6.58125E1,3.2664664E0,1.6171873E1,3.6600773E0,1.0687927E0,4.68749E-1,7.63125E1,9.8E1,1.4343162E-1,9.025E1,6.708974E-1,3.6537526E0,5.341787E-1,2.2343748E1,1.3812499E1,3.6537526E0,6.708974E-1,1.2880281E0,1.5828124E1,4.092104E0,-2.5829503E-1,-2.0737796E-1,-2.1390422E-1,-1.2111104E-1,-8.8998675E-2,1.955212E-2,-1.3586561E-1,-2.3022506E-1,-2.6497015E-1,-2.1439454E-1,-1.8971032E-1,-2.3800309E-1,-2.574836E-1,-2.368032E-1,-2.6805443E-1,-2.8337008E-1,-2.2392316E-1,-1.8692014E-1,-2.3355791E-1,-2.6102173E-1,-2.3622611E-1,-2.573577E-1,-2.6404873E-1,-2.798726E-1,-2.5762746E-1,-2.4141535E-1,-2.5298363E-1,-2.7294013E-1,-2.6659018E-1,-2.776057E-1,-2.779508E-1,-2.8552863E-1],"split_indices":[12,13,12,4,13,13,12,3,12,3,13,4,13,3,12,13,20,4,4,15,4,15,13,15,3,3,13,15,13,3,12,0,0,0,0,0,0,0,0,0,0,0,0,0,0,0,0,0,0,0,0,0,0,0,0,0,0,0,0,0,0,0,0],"split_type":[0,0,0,0,0,0,0,0,0,0,0,0,0,0,0,0,0,0,0,0,0,0,0,0,0,0,0,0,0,0,0,0,0,0,0,0,0,0,0,0,0,0,0,0,0,0,0,0,0,0,0,0,0,0,0,0,0,0,0,0,0,0,0],"sum_hessian":[1.9351936E6,6.450639E5,1.2901298E6,1.939212E5,4.5114266E5,9.969177E5,2.93212E5,8.470105E4,1.0922016E5,3.7765178E5,7.34909E4,5.1299338E5,4.8392434E5,1.4660605E5,1.4660595E5,4.6921695E4,3.777935E4,5.8999992E4,5.0220164E4,4.078293E4,3.3686884E5,3.987512E4,3.361578E4,2.6651038E5,2.46483E5,3.884005E5,9.552383E4,9.6571336E4,5.0034707E4,5.864169E4,8.796426E4,1.4391377E4,3.2530318E4,8.977829E3,2.8801523E4,2.600684E4,3.2993152E4,4.2959504E4,7.260659E3,3.0638385E4,1.0144546E4,2.791192E5,5.7749656E4,2.497387E4,1.4901251E4,9.241058E3,2.4374725E4,1.556509E5,1.1085945E5,1.9968594E5,4.6797062E4,2.3226844E5,1.5613208E5,5.663647E4,3.888736E4,6.4173527E4,3.2397807E4,1.156782E4,3.846689E4,3.766247E4,2.097922E4,5.864317E4,2.9321082E4],"tree_param":{"num_deleted":"0","num_feature":"21","num_nodes":"63","size_leaf_vector":"0"}},{"base_weights":[-6.433328E-1,-6.9504464E-1,-5.528621E-1,-8.375548E-1,-6.78407E-1,-7.530769E-1,-5.3202355E-1,-8.784952E-1,-8.1048024E-1,-6.6384053E-1,-8.5888356E-1,-5.510193E-1,-7.784684E-1,-5.001283E-1,-7.0429784E-1,-8.9904153E-1,-8.2694316E-1,-9.0002495E-1,-7.9742604E-1,-8.162445E-1,-6.470939E-1,-8.016547E-1,-9.4649184E-1,-7.69586E-1,-4.1479546E-1,-8.2124585E-1,-7.108999E-1,-6.5809953E-1,-4.7965866E-1,-6.6918564E-1,-8.590903E-1,-9.116881E-1,-8.1884176E-1,-9.485335E-1,-8.146069E-1,-8.783945E-1,-9.5863616E-1,-9.045097E-1,-7.8736395E-1,-8.8613087E-1,-7.8426135E-1,-7.936643E-1,-6.2745357E-1,-9.173339E-1,-7.891211E-1,-8.9197654E-1,-1.0022994E0,-8.842296E-1,-6.605109E-1,-6.622683E-1,-3.6520597E-1,-9.085708E-1,-8.113388E-1,-6.1761045E-1,-7.6312387E-1,-7.07515E-1,-6.2461793E-1,-4.3572715E-1,-5.280948E-1,-7.9295814E-1,-6.5001094E-1,-7.4977374E-1,-9.015475E-1],"categories":[],"categories_nodes":[],"categories_segments":[],"categories_sizes":[],"default_left":[false,false,false,false,false,false,false,false,false,false,false,false,false,false,false,false,false,false,false,false,false,false,false,false,false,false,false,false,false,false,false,false,false,false,false,false,false,false,false,false,false,false,false,false,false,false,false,false,false,false,false,false,false,false,false,false,false,false,false,false,false,false,false],"id":6,"left_children":[1,3,5,7,9,11,13,15,17,19,21,23,25,27,29,31,33,35,37,39,41,43,45,47,49,51,53,55,57,59,61,-1,-1,-1,-1,-1,-1,-1,-1,-1,-1,-1,-1,-1,-1,-1,-1,-1,-1,-1,-1,-1,-1,-1,-1,-1,-1,-1,-1,-1,-1,-1,-1],"loss_changes":[5.8343823E3,1.8810085E3,1.8921123E3,9.124115E1,1.8675695E3,2.1894452E2,2.2571226E3,3.422153E1,5.7667633E1,1.6776981E3,2.6530792E2,1.4190489E2,1.0920147E2,1.1206669E3,3.4824652E2,2.3181562E1,1.3356622E1,7.204989E0,4.6267418E1,1.4480705E2,1.7049888E3,4.5825714E1,6.2882782E1,2.2336018E1,3.5897873E1,1.9378548E1,7.130235E1,6.5349045E1,6.5281824E2,1.2364935E2,5.43827E1,0E0,0E0,0E0,0E0,0E0,0E0,0E0,0E0,0E0,0E0,0E0,0E0,0E0,0E0,0E0,0E0,0E0,0E0,0E0,0E0,0E0,0E0,0E0,0E0,0E0,0E0,0E0,0E0,0E0,0E0,0E0,0E0],"parents":[2147483647,0,0,1,1,2,2,3,3,4,4,5,5,6,6,7,7,8,8,9,9,10,10,11,11,12,12,13,13,14,14,15,15,16,16,17,17,18,18,19,19,20,20,21,21,22,22,23,23,24,24,25,25,26,26,27,27,28,28,29,29,30,30],"right_children":[2,4,6,8,10,12,14,16,18,20,22,24,26,28,30,32,34,36,38,40,42,44,46,48,50,52,54,56,58,60,62,-1,-1,-1,-1,-1,-1,-1,-1,-1,-1,-1,-1,-1,-1,-1,-1,-1,-1,-1,-1,-1,-1,-1,-1,-1,-1,-1,-1,-1,-1,-1,-1],"split_conditions":[6.953115E-1,4.4872946E-1,4.9140615E0,3.9892477E-1,1.22875E2,3.88125E1,9.99375E1,2.7001852E-1,6.011718E0,6.3475564E-2,1.5625E2,3.7519522E0,4.230468E0,4.5873922E-1,1.5625E2,1.166875E2,5.421874E0,5.921875E1,6.3475564E-2,5.109375E1,5.636718E0,9.046874E0,1.8525E2,3.0351553E0,4.68749E-1,4.5873922E-1,4.953125E1,4.0893453E-1,6.184375E1,8.796874E0,4.68749E-1,-2.1272722E-1,-1.9106308E-1,-2.2132447E-1,-1.9007495E-1,-2.049587E-1,-2.2368178E-1,-2.1105227E-1,-1.8371825E-1,-2.0676386E-1,-1.8299432E-1,-1.8518834E-1,-1.4640583E-1,-2.1404457E-1,-1.8412825E-1,-2.0812786E-1,-2.3386987E-1,-2.0632024E-1,-1.5411921E-1,-1.5452927E-1,-8.521473E-2,-2.1199986E-1,-1.8931238E-1,-1.441091E-1,-1.7806223E-1,-1.6508684E-1,-1.4574419E-1,-1.0166967E-1,-1.2322213E-1,-1.8502356E-1,-1.5166922E-1,-1.749472E-1,-2.1036108E-1],"split_indices":[15,20,7,20,4,4,4,15,7,15,4,7,7,20,4,4,7,4,15,4,7,7,4,7,20,20,4,20,4,7,20,0,0,0,0,0,0,0,0,0,0,0,0,0,0,0,0,0,0,0,0,0,0,0,0,0,0,0,0,0,0,0,0],"split_type":[0,0,0,0,0,0,0,0,0,0,0,0,0,0,0,0,0,0,0,0,0,0,0,0,0,0,0,0,0,0,0,0,0,0,0,0,0,0,0,0,0,0,0,0,0,0,0,0,0,0,0,0,0,0,0,0,0,0,0,0,0,0,0],"sum_hessian":[1.2471694E6,7.935691E5,4.536002E5,8.295602E4,7.106131E5,4.275737E4,4.108428E5,3.3009582E4,4.994644E4,6.5754644E5,5.3066695E4,4.775789E3,3.7981582E4,3.4666453E5,6.4178277E4,2.3590877E4,9.418705E3,6.3463076E3,4.3600133E4,6.5095152E4,5.9245125E5,3.2104822E4,2.0961873E4,1.831906E3,2.9438828E3,2.3250541E4,1.4731041E4,3.976366E4,3.0690088E5,5.231644E4,1.1861834E4,2.0368621E4,3.2222563E3,8.605881E2,8.558117E3,4.64723E3,1.6990773E3,3.737345E3,3.986279E4,2.0429014E4,4.466614E4,7.000253E4,5.2244875E5,3.1313955E3,2.8973428E4,1.0612303E4,1.0349571E4,8.8968964E2,9.422164E2,4.8936844E2,2.4545144E3,2.359779E3,2.0890762E4,5.2914956E3,9.439546E3,1.6052155E4,2.3711504E4,1.6093931E5,1.4596156E5,7.012217E3,4.5304227E4,3.3234475E3,8.538387E3],"tree_param":{"num_deleted":"0","num_feature":"21","num_nodes":"63","size_leaf_vector":"0"}},{"base_weights":[-6.433328E-1,-4.1081473E-1,-7.595911E-1,-1.7389295E-1,-5.8639294E-1,-6.910031E-1,-8.969402E-1,-5.5146354E-1,3.3998463E-2,-5.215926E-1,-8.852652E-1,-6.4616567E-1,-9.1548914E-1,-7.8135455E-1,-9.3763137E-1,-6.555098E-1,-2.960519E-1,2.9270405E-1,-1.8958612E-1,-4.6325636E-1,-7.967607E-1,-7.440137E-1,-9.591352E-1,-5.793527E-1,-7.628205E-1,-8.2820153E-1,-9.6646583E-1,-7.0775026E-1,-9.1693884E-1,-8.8270384E-1,-9.9497557E-1,-7.729495E-1,-4.251846E-1,-7.24023E-1,-2.1947604E-1,-2.286819E-1,4.3638265E-1,2.1730432E-2,-4.1051456E-1,-7.918868E-1,-4.1644764E-1,-6.901021E-1,-9.264127E-1,-6.793347E-1,-8.791876E-1,-9.0833235E-1,-1.0236471E0,-6.944905E-1,-4.9294764E-1,-7.0459753E-1,-9.197214E-1,-7.977013E-1,-9.3540424E-1,-9.297681E-1,-1.0195811E0,-8.072242E-1,-5.9122133E-1,-8.549185E-1,-1.0070977E0,-9.330936E-1,-8.1804365E-1,-9.352536E-1,-1.0413822E0],"categories":[],"categories_nodes":[],"categories_segments":[],"categories_sizes":[],"default_left":[false,false,false,false,false,false,false,false,false,false,false,false,false,false,false,false,false,false,false,false,false,false,false,false,false,false,false,false,false,false,false,false,false,false,false,false,false,false,false,false,false,false,false,false,false,false,false,false,false,false,false,false,false,false,false,false,false,false,false,false,false,false,false],"id":7,"left_children":[1,3,5,7,9,11,13,15,17,19,21,23,25,27,29,31,33,35,37,39,41,43,45,47,49,51,53,55,57,59,61,-1,-1,-1,-1,-1,-1,-1,-1,-1,-1,-1,-1,-1,-1,-1,-1,-1,-1,-1,-1,-1,-1,-1,-1,-1,-1,-1,-1,-1,-1,-1,-1],"loss_changes":[3.371339E4,1.7293309E4,7.832032E3,1.3889624E4,4.6238604E3,5.581019E3,1.3016757E3,1.6695908E3,6.6009966E3,3.149572E3,4.431999E2,3.6021187E3,4.0997913E2,7.189611E2,6.4421387E2,1.2073031E3,5.959444E2,3.9633027E3,2.857896E3,2.4902646E3,4.7399622E2,1.2716733E2,9.061215E1,2.9234985E3,1.5370114E3,1.10566536E2,1.1264227E2,5.413239E2,1.4099063E2,3.400979E2,2.7670444E2,0E0,0E0,0E0,0E0,0E0,0E0,0E0,0E0,0E0,0E0,0E0,0E0,0E0,0E0,0E0,0E0,0E0,0E0,0E0,0E0,0E0,0E0,0E0,0E0,0E0,0E0,0E0,0E0,0E0,0E0,0E0,0E0],"parents":[2147483647,0,0,1,1,2,2,3,3,4,4,5,5,6,6,7,7,8,8,9,9,10,10,11,11,12,12,13,13,14,14,15,15,16,16,17,17,18,18,19,19,20,20,21,21,22,22,23,23,24,24,25,25,26,26,27,27,28,28,29,29,30,30],"right_children":[2,4,6,8,10,12,14,16,18,20,22,24,26,28,30,32,34,36,38,40,42,44,46,48,50,52,54,56,58,60,62,-1,-1,-1,-1,-1,-1,-1,-1,-1,-1,-1,-1,-1,-1,-1,-1,-1,-1,-1,-1,-1,-1,-1,-1,-1,-1,-1,-1,-1,-1,-1,-1],"split_conditions":[1.850065E0,2.0557816E0,1.264375E2,8.48125E1,3.1938708E0,3.2266562E0,1.3503128E0,4.353125E1,1.1273335E0,1.49625E2,2.7921858E0,2.478694E0,3.4168246E0,1.92375E2,1.8512516E0,2.2630262E0,8.7832475E-1,7.5664053E0,1.3972763E0,6.917968E0,1.0684319E0,3.5078576E0,3.6395426E0,2.121572E-1,2.4999151E0,2.9591954E0,3.7932851E0,6.010732E-1,2.535E2,5.471875E1,1.58625E2,-1.803549E-1,-9.920974E-2,-1.689387E-1,-5.1211078E-2,-5.3359114E-2,1.0182262E-1,5.0704344E-3,-9.5786735E-2,-1.847736E-1,-9.717111E-2,-1.6102383E-1,-2.1616296E-1,-1.5851143E-1,-2.0514376E-1,-2.1194422E-1,-2.3885098E-1,-1.6204779E-1,-1.1502112E-1,-1.6440609E-1,-2.1460167E-1,-1.861303E-1,-2.1826099E-1,-2.1694589E-1,-2.3790225E-1,-1.8835232E-1,-1.3795164E-1,-1.9948098E-1,-2.3498946E-1,-2.1772185E-1,-1.9087686E-1,-2.1822585E-1,-2.4298918E-1],"split_indices":[12,13,0,0,14,12,13,8,12,0,13,13,12,0,14,14,12,11,13,3,12,14,14,16,14,14,12,16,0,8,0,0,0,0,0,0,0,0,0,0,0,0,0,0,0,0,0,0,0,0,0,0,0,0,0,0,0,0,0,0,0,0,0],"split_type":[0,0,0,0,0,0,0,0,0,0,0,0,0,0,0,0,0,0,0,0,0,0,0,0,0,0,0,0,0,0,0,0,0,0,0,0,0,0,0,0,0,0,0,0,0,0,0,0,0,0,0,0,0,0,0,0,0,0,0,0,0,0,0],"sum_hessian":[1.2471694E6,4.157229E5,8.3144644E5,1.7695088E5,2.3877202E5,5.5453456E5,2.769119E5,6.283281E4,1.1411806E5,1.9622912E5,4.2542902E4,4.622179E5,9.231663E4,7.210721E4,2.0480469E5,4.464454E4,1.818827E4,5.2903777E4,6.121429E4,1.6190711E5,3.4322004E4,1.4612499E4,2.7930402E4,2.93897E5,1.683209E5,3.4042598E4,5.827404E4,4.6739887E4,2.5367328E4,1.0461495E5,1.0018973E5,2.9566582E4,1.5077956E4,2.7591782E3,1.5429092E4,1.142905E4,4.1474727E4,3.128822E4,2.9926068E4,2.018414E4,1.4172297E5,1.8834264E4,1.5487742E4,9.887483E3,4.725015E3,1.5633869E4,1.2296534E4,1.2599586E5,1.6790112E5,1.2276915E5,4.555177E4,2.6508969E4,7.533628E3,3.4474137E4,2.3799902E4,2.5211967E4,2.1527918E4,1.5035129E4,1.03322E4,5.8787953E4,4.5827E4,4.3819035E4,5.637069E4],"tree_param":{"num_deleted":"0","num_feature":"21","num_nodes":"63","size_leaf_vector":"0"}},{"base_weights":[-6.433328E-1,-4.1081473E-1,-7.595911E-1,-2.3483582E-1,-5.693734E-1,-7.1826875E-1,-9.4553334E-1,-5.016855E-1,-9.140078E-2,-4.989818E-1,-8.8494974E-1,-7.7402204E-1,-6.213677E-1,-8.88438E-1,-1.002617E0,-8.0779564E-1,-4.0724215E-1,1.4888094E-1,-3.623234E-1,-7.17447E-1,-4.519727E-1,-8.105032E-1,-1.0054525E0,-7.5598216E-1,-9.4529E-1,-5.963006E-1,-9.049912E-1,-9.1494364E-1,-8.30511E-1,-9.693672E-1,-1.03584E0,-9.6556747E-1,-7.351486E-1,-7.274462E-1,-3.1083912E-1,-1.7524624E-2,3.953506E-1,-5.1404506E-1,-9.166443E-2,-9.0444535E-1,-6.972756E-1,-3.8895282E-1,-6.265642E-1,-8.986331E-1,-7.605526E-1,-9.577081E-1,-1.0327499E0,-8.761837E-1,-7.3349273E-1,-8.96009E-1,-1.0166827E0,-7.833367E-1,-5.5669755E-1,-8.370736E-1,-9.8061305E-1,-8.8038516E-1,-9.562141E-1,-7.599723E-1,-8.716937E-1,-9.849806E-1,-9.1760755E-1,-1.0143318E0,-1.0572929E0],"categories":[],"categories_nodes":[],"categories_segments":[],"categories_sizes":[],"default_left":[false,false,false,false,false,false,false,false,false,false,false,false,false,false,false,false,false,false,false,false,false,false,false,false,false,false,false,false,false,false,false,false,false,false,false,false,false,false,false,false,false,false,false,false,false,false,false,false,false,false,false,false,false,false,false,false,false,false,false,false,false,false,false],"id":8,"left_children":[1,3,5,7,9,11,13,15,17,19,21,23,25,27,29,31,33,35,37,39,41,43,45,47,49,51,53,55,57,59,61,-1,-1,-1,-1,-1,-1,-1,-1,-1,-1,-1,-1,-1,-1,-1,-1,-1,-1,-1,-1,-1,-1,-1,-1,-1,-1,-1,-1,-1,-1,-1,-1],"loss_changes":[3.371339E4,1.1599804E4,6.3878027E3,7.5417666E3,4.8574146E3,3.674733E3,4.9181952E2,1.9911305E3,8.342729E3,1.8359702E3,3.5696555E2,1.3334484E3,1.765902E3,1.15298E2,8.249389E1,1.8543607E2,1.6248496E3,2.7856528E3,2.4735996E3,1.1879248E2,1.6187551E3,1.0786043E2,1.8854633E1,1.0554456E3,1.4385146E2,1.6905197E3,1.0279392E2,7.310796E1,6.830179E1,2.9639029E1,1.6366257E1,0E0,0E0,0E0,0E0,0E0,0E0,0E0,0E0,0E0,0E0,0E0,0E0,0E0,0E0,0E0,0E0,0E0,0E0,0E0,0E0,0E0,0E0,0E0,0E0,0E0,0E0,0E0,0E0,0E0,0E0,0E0,0E0],"parents":[2147483647,0,0,1,1,2,2,3,3,4,4,5,5,6,6,7,7,8,8,9,9,10,10,11,11,12,12,13,13,14,14,15,15,16,16,17,17,18,18,19,19,20,20,21,21,22,22,23,23,24,24,25,25,26,26,27,27,28,28,29,29,30,30],"right_children":[2,4,6,8,10,12,14,16,18,20,22,24,26,28,30,32,34,36,38,40,42,44,46,48,50,52,54,56,58,60,62,-1,-1,-1,-1,-1,-1,-1,-1,-1,-1,-1,-1,-1,-1,-1,-1,-1,-1,-1,-1,-1,-1,-1,-1,-1,-1,-1,-1,-1,-1,-1,-1],"split_conditions":[1.850065E0,2.2228804E0,3.2266562E0,7.812499E0,3.2519672E0,6.953115E-1,3.5100596E0,5.183593E0,1.2433711E0,8.0822957E-1,3.6395426E0,3.2519672E0,3.3210897E0,7.856435E-1,3.7932851E0,3.7519522E0,1.1445043E0,4.853125E1,6.450185E-1,4.5873922E-1,5.0875E1,1.0684319E0,3.8204749E0,4.68749E-1,3.6395426E0,1.1995765E0,3.6395426E0,2.342917E0,8.296874E0,8.8915914E-1,4.0604067E0,-2.2529908E-1,-1.7153467E-1,-1.6973744E-1,-7.252913E-2,-4.089079E-3,9.224848E-2,-1.1994385E-1,-2.1388369E-2,-2.1103725E-1,-1.6269764E-1,-9.075566E-2,-1.4619832E-1,-2.0968106E-1,-1.7746226E-1,-2.2346523E-1,-2.4097498E-1,-2.0444286E-1,-1.711483E-1,-2.0906878E-1,-2.3722598E-1,-1.8277857E-1,-1.2989609E-1,-1.9531718E-1,-2.2880971E-1,-2.054232E-1,-2.2311662E-1,-1.7732686E-1,-2.0339519E-1,-2.298288E-1,-2.1410842E-1,-2.3667742E-1,-2.4670169E-1],"split_indices":[12,14,12,7,14,15,12,7,12,12,14,14,14,15,12,7,14,8,15,18,8,12,14,20,14,14,14,14,7,15,12,0,0,0,0,0,0,0,0,0,0,0,0,0,0,0,0,0,0,0,0,0,0,0,0,0,0,0,0,0,0,0,0],"split_type":[0,0,0,0,0,0,0,0,0,0,0,0,0,0,0,0,0,0,0,0,0,0,0,0,0,0,0,0,0,0,0,0,0,0,0,0,0,0,0,0,0,0,0,0,0,0,0,0,0,0,0,0,0,0,0,0,0,0,0,0,0,0,0],"sum_hessian":[1.2471694E6,4.157229E5,8.3144644E5,1.9703873E5,2.1868416E5,6.802728E5,1.5117364E5,6.888363E4,1.2815511E5,1.7880334E5,3.988081E4,4.3181547E5,2.4845734E5,7.558738E4,7.558625E4,1.6239747E4,5.2643887E4,6.7918516E4,6.0236594E4,3.1659242E4,1.4714411E5,2.4656047E4,1.5224764E4,3.90671E5,4.1144453E4,2.2828434E5,2.0173E4,5.1848332E4,2.3739055E4,3.7792996E4,3.7793254E4,5.1162344E3,1.1123513E4,1.2180298E4,4.046359E4,4.0545133E4,2.7373379E4,3.8598668E4,2.1637926E4,3.0782842E3,2.8580959E4,1.08120555E5,3.9023543E4,8.913174E3,1.5742872E4,5.5513164E3,9.673448E3,6.1567332E4,3.2910366E5,2.4349816E4,1.6794639E4,3.988727E4,1.8839706E5,1.0634232E4,9.538767E3,2.823098E4,2.361735E4,8.757847E3,1.4981207E4,2.9020826E4,8.772168E3,1.8896432E4,1.8896822E4],"tree_param":{"num_deleted":"0","num_feature":"21","num_nodes":"63","size_leaf_vector":"0"}},{"base_weights":[-3.8159102E-1,-1.7209525E-1,-5.3595555E-1,-1.2428504E-1,-6.506617E-1,-4.5564646E-1,-7.286699E-1,-3.724087E-2,-2.6049152E-1,-5.3936744E-1,-8.37008E-1,-4.0365213E-1,-7.588201E-1,-6.643556E-1,-8.4511846E-1,-4.5729014E-1,4.3588392E-2,-1.9824001E-1,-6.154023E-1,-4.979138E-1,-7.5116414E-1,-7.401843E-1,-8.9289826E-1,-3.6675274E-1,-7.1993124E-1,-6.9681394E-1,-8.797311E-1,-6.2933725E-1,-8.665643E-1,-8.0820924E-1,-9.1181535E-1,-7.04E-1,-2.5999993E-1,2.769172E-1,-1.6140723E-1,-4.1602468E-1,-1.0513694E-1,-5.080399E-1,-7.826554E-1,-6.7555857E-1,-4.386185E-1,-6.7703307E-1,-8.9267904E-1,-8.0065644E-1,-6.859736E-1,-8.5089093E-1,-9.409217E-1,-4.4548383E-1,-2.5204176E-1,-6.337561E-1,-8.347555E-1,-6.727416E-1,-8.583898E-1,-8.3816963E-1,-9.200042E-1,-8.708844E-1,-6.1018974E-1,-8.1524533E-1,-9.472709E-1,-7.867874E-1,-9.520941E-1,-8.2849157E-1,-9.531054E-1],"categories":[],"categories_nodes":[],"categories_segments":[],"categories_sizes":[],"default_left":[false,false,false,false,false,false,false,false,false,false,false,false,false,false,false,false,false,false,false,false,false,false,false,false,false,false,false,false,false,false,false,false,false,false,false,false,false,false,false,false,false,false,false,false,false,false,false,false,false,false,false,false,false,false,false,false,false,false,false,false,false,false,false],"id":9,"left_children":[1,3,5,7,9,11,13,15,17,19,21,23,25,27,29,31,33,35,37,39,41,43,45,47,49,51,53,55,57,59,61,-1,-1,-1,-1,-1,-1,-1,-1,-1,-1,-1,-1,-1,-1,-1,-1,-1,-1,-1,-1,-1,-1,-1,-1,-1,-1,-1,-1,-1,-1,-1,-1],"loss_changes":[2.8407457E4,8.526767E3,7.827289E3,4.017068E3,7.0155365E2,5.627198E3,1.1136129E3,7.0185977E3,2.91857E3,1.8571233E2,6.782209E1,3.5562031E3,3.9120285E2,6.78115E2,1.2955559E2,1.6235311E3,8.292121E3,2.2788823E3,3.535835E2,1.8644798E2,3.5770493E1,1.4653124E1,1.5375869E1,2.4645642E3,3.145035E2,1.3380647E2,2.8875414E1,3.7732486E2,5.7813705E1,1.0429787E2,6.4053444E1,0E0,0E0,0E0,0E0,0E0,0E0,0E0,0E0,0E0,0E0,0E0,0E0,0E0,0E0,0E0,0E0,0E0,0E0,0E0,0E0,0E0,0E0,0E0,0E0,0E0,0E0,0E0,0E0,0E0,0E0,0E0,0E0],"parents":[2147483647,0,0,1,1,2,2,3,3,4,4,5,5,6,6,7,7,8,8,9,9,10,10,11,11,12,12,13,13,14,14,15,15,16,16,17,17,18,18,19,19,20,20,21,21,22,22,23,23,24,24,25,25,26,26,27,27,28,28,29,29,30,30],"right_children":[2,4,6,8,10,12,14,16,18,20,22,24,26,28,30,32,34,36,38,40,42,44,46,48,50,52,54,56,58,60,62,-1,-1,-1,-1,-1,-1,-1,-1,-1,-1,-1,-1,-1,-1,-1,-1,-1,-1,-1,-1,-1,-1,-1,-1,-1,-1,-1,-1,-1,-1,-1,-1],"split_conditions":[2.0523112E0,3.2126737E0,1.33375E2,1.4853882E0,3.5837893E0,3.287434E0,1.985E2,6.89375E1,1.39875E2,1.515E2,3.7643824E0,3.2126737E0,3.7280219E0,3.3590746E0,2.8075E2,1.065613E0,1.9979559E0,1.2792869E-1,1.88625E2,1.065613E0,2.10375E2,1.328079E0,4.0542016E0,6.459951E-1,3.5837893E0,3.3567069E0,3.9955275E0,4.5873922E-1,3.7280219E0,3.448198E0,1.4430121E0,-1.6426666E-1,-6.066665E-2,6.461401E-2,-3.7661687E-2,-9.707243E-2,-2.4531953E-2,-1.1854264E-1,-1.826196E-1,-1.5763034E-1,-1.0234432E-1,-1.5797438E-1,-2.0829177E-1,-1.8681984E-1,-1.6006051E-1,-1.9854122E-1,-2.195484E-1,-1.0394623E-1,-5.8809742E-2,-1.4787643E-1,-1.9477628E-1,-1.5697303E-1,-2.0029095E-1,-1.9557291E-1,-2.1466765E-1,-2.0320636E-1,-1.423776E-1,-1.9022392E-1,-2.2102988E-1,-1.8358372E-1,-2.2215529E-1,-1.933147E-1,-2.2239126E-1],"split_indices":[12,14,0,12,14,12,0,0,0,0,14,14,12,12,0,12,14,15,0,12,0,12,14,15,14,14,12,19,12,12,14,0,0,0,0,0,0,0,0,0,0,0,0,0,0,0,0,0,0,0,0,0,0,0,0,0,0,0,0,0,0,0,0],"split_type":[0,0,0,0,0,0,0,0,0,0,0,0,0,0,0,0,0,0,0,0,0,0,0,0,0,0,0,0,0,0,0,0,0,0,0,0,0,0,0,0,0,0,0,0,0,0,0,0,0,0,0,0,0,0,0,0,0,0,0,0,0,0,0],"sum_hessian":[8.784367E5,3.7266997E5,5.0576672E5,3.388219E5,3.384806E4,3.5699916E5,1.4876756E5,2.0671794E5,1.3210397E5,2.119397E4,1.2654087E4,3.0473872E5,5.2260418E4,9.584133E4,5.292623E4,3.3358348E4,1.7335958E5,1.1239192E5,1.9712041E4,1.772761E4,3.466361E3,4.636354E3,8.017733E3,2.7290216E5,3.1836568E4,3.45494E4,1.771102E4,8.16972E4,1.4144129E4,3.407992E4,1.8846309E4,1.4821551E4,1.8536799E4,8.107667E4,9.2282914E4,3.365752E4,7.873441E4,1.2007972E4,7.7040693E3,4.433811E3,1.3293798E4,2.2785515E3,1.1878098E3,2.185101E3,2.451253E3,4.286735E3,3.730998E3,1.6182902E5,1.1107315E5,1.8190895E4,1.3645673E4,3.0074E4,4.4753984E3,8.726817E3,8.984202E3,5.997228E3,7.569998E4,8.653025E3,5.491103E3,2.9669184E4,4.4107397E3,6.2515923E3,1.2594717E4],"tree_param":{"num_deleted":"0","num_feature":"21","num_nodes":"63","size_leaf_vector":"0"}},{"base_weights":[-3.8159102E-1,-2.6562673E-1,-5.29544E-1,-2.2239003E-1,-6.6560537E-1,-4.722901E-1,-8.043512E-1,-3.7013087E-1,-1.6860667E-1,-5.667459E-1,-8.266286E-1,-3.9904532E-1,-7.0595783E-1,-7.390242E-1,-9.023103E-1,-5.406341E-1,-3.2472432E-1,-5.2942842E-2,-2.482269E-1,-5.336068E-1,-7.782727E-1,-7.851015E-1,-9.25786E-1,-3.591586E-1,-7.073984E-1,-6.2926435E-1,-8.2382876E-1,-6.9915557E-1,-8.7468135E-1,-8.650239E-1,-9.3952835E-1,-6.366718E-1,-5.050488E-1,-2.593918E-1,-4.159625E-1,1.4108917E-1,-2.4339882E-1,-8.659404E-2,-4.1718227E-1,-6.8732965E-1,-4.9980494E-1,-6.577064E-1,-9.354442E-1,-6.880779E-1,-8.246996E-1,-7.3076266E-1,-9.438962E-1,-5.8137536E-1,-3.1088814E-1,-6.206661E-1,-8.421109E-1,-7.362546E-1,-5.896317E-1,-7.231422E-1,-8.643047E-1,-6.6270405E-1,-8.643477E-1,-7.8912276E-1,-9.325396E-1,-8.33737E-1,-9.1319317E-1,-8.959137E-1,-9.6452826E-1],"categories":[],"categories_nodes":[],"categories_segments":[],"categories_sizes":[],"default_left":[false,false,false,false,false,false,false,false,false,false,false,false,false,false,false,false,false,false,false,false,false,false,false,false,false,false,false,false,false,false,false,false,false,false,false,false,false,false,false,false,false,false,false,false,false,false,false,false,false,false,false,false,false,false,false,false,false,false,false,false,false,false,false],"id":10,"left_children":[1,3,5,7,9,11,13,15,17,19,21,23,25,27,29,31,33,35,37,39,41,43,45,47,49,51,53,55,57,59,61,-1,-1,-1,-1,-1,-1,-1,-1,-1,-1,-1,-1,-1,-1,-1,-1,-1,-1,-1,-1,-1,-1,-1,-1,-1,-1,-1,-1,-1,-1,-1,-1],"loss_changes":[1.5071445E4,8.516289E3,6.072567E3,3.531286E3,7.6426276E2,5.466794E3,4.2520743E2,9.1807446E2,3.0004539E3,2.0825702E2,7.4513E1,2.9909414E3,6.886091E2,2.1534901E2,3.6129063E1,8.491814E1,5.5821765E2,4.909075E3,5.269832E3,1.3340356E2,7.57491E1,4.893685E1,1.8340109E1,2.3097563E3,3.2493213E2,1.9541194E2,1.21822815E2,1.8528302E2,4.414163E1,1.929856E1,1.3649438E1,0E0,0E0,0E0,0E0,0E0,0E0,0E0,0E0,0E0,0E0,0E0,0E0,0E0,0E0,0E0,0E0,0E0,0E0,0E0,0E0,0E0,0E0,0E0,0E0,0E0,0E0,0E0,0E0,0E0,0E0,0E0,0E0],"parents":[2147483647,0,0,1,1,2,2,3,3,4,4,5,5,6,6,7,7,8,8,9,9,10,10,11,11,12,12,13,13,14,14,15,15,16,16,17,17,18,18,19,19,20,20,21,21,22,22,23,23,24,24,25,25,26,26,27,27,28,28,29,29,30,30],"right_children":[2,4,6,8,10,12,14,16,18,20,22,24,26,28,30,32,34,36,38,40,42,44,46,48,50,52,54,56,58,60,62,-1,-1,-1,-1,-1,-1,-1,-1,-1,-1,-1,-1,-1,-1,-1,-1,-1,-1,-1,-1,-1,-1,-1,-1,-1,-1,-1,-1,-1,-1,-1,-1],"split_conditions":[2.3112671E0,3.2126737E0,3.3258183E0,1.2133689E-1,3.5837893E0,1.39875E2,3.7247612E0,6.512351E-2,1.9163449E0,1.73125E2,4.0542016E0,3.1610737E0,1.985E2,1.515E2,4.0110283E0,5.03125E1,1.6722617E0,1.5443791E0,6.44375E1,9.7194767E-1,1.2289598E0,7.3476553E0,5.246093E0,1.1969827E0,3.5837893E0,8.437499E0,1.1969827E0,3.1610737E0,1.707627E0,1.176875E2,2.236958E0,-1.4855675E-1,-1.1784472E-1,-6.0524758E-2,-9.7057916E-2,3.2920808E-2,-5.6793056E-2,-2.0205276E-2,-9.734253E-2,-1.6037692E-1,-1.1662115E-1,-1.5346482E-1,-2.182703E-1,-1.6055152E-1,-1.924299E-1,-1.7051129E-1,-2.2024244E-1,-1.3565426E-1,-7.254057E-2,-1.4482209E-1,-1.9649254E-1,-1.7179273E-1,-1.3758072E-1,-1.6873318E-1,-2.0167111E-1,-1.5463094E-1,-2.0168114E-1,-1.8412864E-1,-2.1759257E-1,-1.9453864E-1,-2.1307841E-1,-2.0904654E-1,-2.2505659E-1],"split_indices":[13,14,13,15,14,0,13,15,14,0,14,14,0,0,13,4,13,13,4,13,13,7,7,14,14,7,14,14,14,0,14,0,0,0,0,0,0,0,0,0,0,0,0,0,0,0,0,0,0,0,0,0,0,0,0,0,0,0,0,0,0,0,0],"split_type":[0,0,0,0,0,0,0,0,0,0,0,0,0,0,0,0,0,0,0,0,0,0,0,0,0,0,0,0,0,0,0,0,0,0,0,0,0,0,0,0,0,0,0,0,0,0,0,0,0,0,0,0,0,0,0,0,0,0,0,0,0,0,0],"sum_hessian":[8.784367E5,4.9245634E5,3.859803E5,4.4441747E5,4.8038875E4,3.1943194E5,6.654838E4,1.18605836E5,3.2581166E5,2.9767672E4,1.8271203E4,2.4320145E5,7.623048E4,3.9929043E4,2.661934E4,2.4940912E4,9.366492E4,1.3283894E5,1.929727E5,2.5738803E4,4.02887E3,1.2884214E4,5.3869897E3,2.1534753E5,2.785392E4,4.6185742E4,3.004473E4,3.0864373E4,9.064672E3,1.3309567E4,1.3309772E4,6.7384004E3,1.8202512E4,5.4583453E4,3.9081473E4,6.580184E4,6.703709E4,9.862429E4,9.434841E4,4.6360103E3,2.1102793E4,2.282867E3,1.7460032E3,3.7396538E3,9.14456E3,4.6125162E2,4.9257383E3,3.8428406E4,1.7691912E5,1.6947904E4,1.0906017E4,1.247941E4,3.3706332E4,8.620227E3,2.1424504E4,2.5289068E4,5.5753027E3,3.6628372E3,5.4018345E3,8.0798496E3,5.229718E3,4.8628745E3,8.446898E3],"tree_param":{"num_deleted":"0","num_feature":"21","num_nodes":"63","size_leaf_vector":"0"}},{"base_weights":[-3.8159102E-1,-3.3986935E-1,-7.332372E-1,-3.0099985E-1,-5.8496404E-1,-6.362067E-1,-8.625915E-1,-4.2528325E-1,-2.4468848E-1,-4.0816697E-1,-7.0223063E-1,-6.110823E-1,-8.537387E-1,-8.2224053E-1,-9.432238E-1,-6.457659E-1,-3.9844787E-1,-5.0715214E-1,-2.1267352E-1,-3.595274E-1,-7.3942786E-1,-6.241847E-1,-8.683356E-1,-5.4731786E-1,-6.748618E-1,-7.8487045E-1,-9.5079464E-1,-8.093945E-1,-9.5554537E-1,-8.667556E-1,-9.5098996E-1,-7.4632525E-1,-6.0030854E-1,-5.2730614E-1,-3.653392E-1,-6.027583E-1,-4.0877295E-1,-5.6441975E-1,-1.8864183E-1,-6.8930304E-1,-3.3312345E-1,-6.435288E-1,-7.920646E-1,-7.0417523E-1,-5.204058E-1,-8.1447005E-1,-9.82442E-1,-7.0177245E-1,-5.2254444E-1,-9.1887563E-1,-6.6590303E-1,-8.6296976E-1,-6.7533153E-1,-9.1898125E-1,-1.0193183E0,-7.7245075E-1,-8.462138E-1,-9.6658784E-1,-7.1104074E-1,-8.3990806E-1,-9.3382055E-1,-9.4034684E-1,-1.0010946E0],"categories":[],"categories_nodes":[],"categories_segments":[],"categories_sizes":[],"default_left":[false,false,false,false,false,false,false,false,false,false,false,false,false,false,false,false,false,false,false,false,false,false,false,false,false,false,false,false,false,false,false,false,false,false,false,false,false,false,false,false,false,false,false,false,false,false,false,false,false,false,false,false,false,false,false,false,false,false,false,false,false,false,false],"id":11,"left_children":[1,3,5,7,9,11,13,15,17,19,21,23,25,27,29,31,33,35,37,39,41,43,45,47,49,51,53,55,57,59,61,-1,-1,-1,-1,-1,-1,-1,-1,-1,-1,-1,-1,-1,-1,-1,-1,-1,-1,-1,-1,-1,-1,-1,-1,-1,-1,-1,-1,-1,-1,-1,-1],"loss_changes":[1.2887542E4,7.480862E3,1.1688398E3,4.743406E3,2.2281978E3,2.9045187E2,1.2914046E2,1.2501771E3,3.9193235E3,6.904145E2,8.3721387E2,1.9374492E2,3.6082016E1,4.4812157E1,7.0806212E0,1.0436779E2,8.0362524E2,4.7671466E2,3.514136E3,3.252534E2,2.7189373E1,3.6463245E2,1.2615318E2,9.098186E1,5.1543648E1,2.7038204E1,4.03835E0,3.238247E1,5.615126E0,1.445668E0,5.4970126E0,0E0,0E0,0E0,0E0,0E0,0E0,0E0,0E0,0E0,0E0,0E0,0E0,0E0,0E0,0E0,0E0,0E0,0E0,0E0,0E0,0E0,0E0,0E0,0E0,0E0,0E0,0E0,0E0,0E0,0E0,0E0,0E0],"parents":[2147483647,0,0,1,1,2,2,3,3,4,4,5,5,6,6,7,7,8,8,9,9,10,10,11,11,12,12,13,13,14,14,15,15,16,16,17,17,18,18,19,19,20,20,21,21,22,22,23,23,24,24,25,25,26,26,27,27,28,28,29,29,30,30],"right_children":[2,4,6,8,10,12,14,16,18,20,22,24,26,28,30,32,34,36,38,40,42,44,46,48,50,52,54,56,58,60,62,-1,-1,-1,-1,-1,-1,-1,-1,-1,-1,-1,-1,-1,-1,-1,-1,-1,-1,-1,-1,-1,-1,-1,-1,-1,-1,-1,-1,-1,-1,-1,-1],"split_conditions":[3.2126737E0,1.73125E2,3.5837893E0,1.3500877E-1,1.6651359E0,1.88625E2,4.0542016E0,4.5873922E-1,5.246093E0,3.46E2,2.475E2,3.3567069E0,2.475E2,1.985E2,5.246093E0,3.9892477E-1,6.512351E-2,4.3007803E0,8.248044E-1,6.3828115E0,4.68749E-1,5.078115E-1,3.46E2,8.3739236E-2,4.5873922E-1,5.571279E-1,3.46E2,3.7643824E0,9.912099E-1,1.7607412E0,1.56E2,-1.7414255E-1,-1.4007199E-1,-1.230381E-1,-8.524581E-2,-1.406436E-1,-9.538035E-2,-1.3169794E-1,-4.401643E-2,-1.6083738E-1,-7.772881E-2,-1.5015672E-1,-1.8481508E-1,-1.6430755E-1,-1.2142803E-1,-1.9004302E-1,-2.2923647E-1,-1.6374691E-1,-1.2192704E-1,-2.1440431E-1,-1.5537737E-1,-2.0135961E-1,-1.5757737E-1,-2.1442896E-1,-2.3784095E-1,-1.8023852E-1,-1.974499E-1,-2.2553717E-1,-1.659095E-1,-1.9597855E-1,-2.1789145E-1,-2.1941426E-1,-2.3358874E-1],"split_indices":[14,0,14,15,14,0,14,20,11,0,0,14,0,0,11,20,15,11,14,11,20,15,0,15,18,15,0,14,15,6,0,0,0,0,0,0,0,0,0,0,0,0,0,0,0,0,0,0,0,0,0,0,0,0,0,0,0,0,0,0,0,0,0],"split_type":[0,0,0,0,0,0,0,0,0,0,0,0,0,0,0,0,0,0,0,0,0,0,0,0,0,0,0,0,0,0,0,0,0,0,0,0,0,0,0,0,0,0,0,0,0,0,0,0,0,0,0,0,0,0,0,0,0,0,0,0,0,0,0],"sum_hessian":[8.784367E5,7.85269E5,9.316764E4,6.77782E5,1.0748704E5,5.3238566E4,3.9929074E4,2.1133758E5,4.664444E5,4.2865434E4,6.4621605E4,4.772971E4,5.5088535E3,2.661919E4,1.3309885E4,2.2928799E4,1.8840878E5,5.0709043E4,4.1573538E5,3.737909E4,5.4863438E3,4.3967723E4,2.065388E4,2.3872457E4,2.3857254E4,3.2276704E3,2.281183E3,2.428592E4,2.33327E3,1.2375197E3,1.2072365E4,7.1333022E3,1.5795497E4,3.8510766E4,1.4989802E5,2.5714365E4,2.499468E4,2.6585602E4,3.8914975E5,2.7690916E3,3.461E4,1.9488862E3,3.5374575E3,2.4826334E4,1.9141389E4,1.403608E4,6.6178003E3,3.2959404E3,2.0576518E4,8.412814E2,2.3015973E4,1.8802251E3,1.3474452E3,1.567742E3,7.134413E2,1.2133454E4,1.2152466E4,2.2296208E3,1.03649284E2,8.933974E2,3.441222E2,9.9735625E3,2.098803E3],"tree_param":{"num_deleted":"0","num_feature":"21","num_nodes":"63","size_leaf_vector":"0"}},{"base_weights":[-1.873655E-1,-1.6167216E-1,-5.855959E-1,-5.0440186E-1,-1.3381313E-1,-4.7517565E-1,-6.959907E-1,-5.3680795E-1,-4.9133215E-2,-3.3631045E-1,-9.729158E-2,-7.615308E-1,-4.5617425E-1,-6.1513895E-1,-7.7677625E-1,-6.249983E-1,-4.729594E-1,-4.595686E-1,8.375097E-3,-4.34003E-1,-2.703813E-1,-4.1105226E-1,-7.645263E-2,-7.060891E-1,-8.1784344E-1,-3.8837433E-1,-5.3988343E-1,-5.6416357E-1,-6.856975E-1,-6.574539E-1,-7.920042E-1,-8.569476E-1,-6.085765E-1,-5.348025E-1,-3.357635E-1,-5.9550655E-1,-3.4718174E-1,1.238328E-1,-1.5987554E-1,-5.110229E-1,-3.5515305E-1,-5.639059E-1,-2.5282216E-1,-5.828236E-1,-3.6091954E-1,-5.5193342E-2,-4.0486723E-1,-8.3578974E-1,-6.666589E-1,-7.68254E-1,-8.5918653E-1,-6.7781365E-1,-3.6947128E-1,-7.9328793E-1,-5.1313615E-1,-7.85184E-1,-5.4435706E-1,-8.797669E-1,-6.6367143E-1,-8.9479595E-1,-6.34428E-1,-8.2838863E-1,-7.4306E-1],"categories":[],"categories_nodes":[],"categories_segments":[],"categories_sizes":[],"default_left":[false,false,false,false,false,false,false,false,false,false,false,false,false,false,false,false,false,false,false,false,false,false,false,false,false,false,false,false,false,false,false,false,false,false,false,false,false,false,false,false,false,false,false,false,false,false,false,false,false,false,false,false,false,false,false,false,false,false,false,false,false,false,false],"id":12,"left_children":[1,3,5,7,9,11,13,15,17,19,21,23,25,27,29,31,33,35,37,39,41,43,45,47,49,51,53,55,57,59,61,-1,-1,-1,-1,-1,-1,-1,-1,-1,-1,-1,-1,-1,-1,-1,-1,-1,-1,-1,-1,-1,-1,-1,-1,-1,-1,-1,-1,-1,-1,-1,-1],"loss_changes":[7.2104204E3,6.320801E3,5.203091E2,7.341898E2,4.5277715E3,1.15854935E2,1.390111E2,2.6130466E2,7.808494E1,6.0240497E2,3.3913926E3,3.5668802E0,1.13468796E2,3.8020557E1,1.888246E1,7.37816E1,2.2850197E2,6.0045567E0,5.640281E1,2.2872406E2,2.8774524E2,2.7797037E2,3.3958616E3,2.9010293E0,6.771141E-1,6.0317017E1,6.032752E1,2.6736462E1,1.854157E1,6.0692377E0,1.623987E1,0E0,0E0,0E0,0E0,0E0,0E0,0E0,0E0,0E0,0E0,0E0,0E0,0E0,0E0,0E0,0E0,0E0,0E0,0E0,0E0,0E0,0E0,0E0,0E0,0E0,0E0,0E0,0E0,0E0,0E0,0E0,0E0],"parents":[2147483647,0,0,1,1,2,2,3,3,4,4,5,5,6,6,7,7,8,8,9,9,10,10,11,11,12,12,13,13,14,14,15,15,16,16,17,17,18,18,19,19,20,20,21,21,22,22,23,23,24,24,25,25,26,26,27,27,28,28,29,29,30,30],"right_children":[2,4,6,8,10,12,14,16,18,20,22,24,26,28,30,32,34,36,38,40,42,44,46,48,50,52,54,56,58,60,62,-1,-1,-1,-1,-1,-1,-1,-1,-1,-1,-1,-1,-1,-1,-1,-1,-1,-1,-1,-1,-1,-1,-1,-1,-1,-1,-1,-1,-1,-1,-1,-1],"split_conditions":[3.345244E0,6.390624E0,3.6279073E0,6.9091696E-1,4.68749E-1,4.4872946E-1,3.9195306E0,4.843749E0,1.1383629E0,4.189443E-1,4.718749E0,8.414062E0,9.406249E0,9.671874E0,5.511718E0,4.5873922E-1,1.0961814E-1,6.953124E0,2.4660306E0,4.5654196E-1,4.718749E0,1.5561566E0,2.6312498E1,3.7890524E-1,-1.97053E-1,5.468749E0,7.3671865E0,5.968749E0,7.6328115E0,4.5873922E-1,5.0146383E-1,-1.9995444E-1,-1.4200118E-1,-1.2478725E-1,-7.834482E-2,-1.3895153E-1,-8.1009075E-2,2.889432E-2,-3.7304293E-2,-1.1923868E-1,-8.2869045E-2,-1.3157804E-1,-5.899184E-2,-1.3599217E-1,-8.421456E-2,-1.2878447E-2,-9.446902E-2,-1.950176E-1,-1.5555374E-1,-1.7925927E-1,-2.0047686E-1,-1.5815651E-1,-8.620997E-2,-1.8510053E-1,-1.1973177E-1,-1.8320961E-1,-1.2701665E-1,-2.0527893E-1,-1.5485667E-1,-2.0878573E-1,-1.480332E-1,-1.9329068E-1,-1.7338067E-1],"split_indices":[14,3,14,15,20,19,14,3,14,20,11,11,11,11,11,19,15,11,14,15,11,14,3,19,1,3,3,3,3,19,15,0,0,0,0,0,0,0,0,0,0,0,0,0,0,0,0,0,0,0,0,0,0,0,0,0,0,0,0,0,0,0,0],"split_type":[0,0,0,0,0,0,0,0,0,0,0,0,0,0,0,0,0,0,0,0,0,0,0,0,0,0,0,0,0,0,0,0,0,0,0,0,0,0,0,0,0,0,0,0,0,0,0,0,0,0,0,0,0,0,0,0,0,0,0,0,0,0,0],"sum_hessian":[7.047103E5,6.620003E5,4.2710043E4,4.976464E4,6.122356E5,2.1355205E4,2.135484E4,4.64576E4,3.3070378E3,9.354696E4,5.186887E5,1.3264376E3,2.0028768E4,1.0677359E4,1.067748E4,1.9506129E4,2.6951475E4,4.0556183E2,2.901476E3,3.7691223E4,5.585574E4,3.2302908E4,4.8638578E5,6.752093E2,6.5122833E2,1.10690625E4,8.959704E3,6.2041387E3,4.4732207E3,1.21344E3,9.464041E3,1.2863214E3,1.8219807E4,1.8575426E4,8.376049E3,1.8160365E2,2.2395818E2,1.7208503E3,1.1806256E3,1.9064098E4,1.8627125E4,3.1510247E3,5.2704715E4,7.2954956E3,2.5007412E4,4.5681588E5,2.9569922E4,1.5270583E2,5.225035E2,3.049888E2,3.4623953E2,6.7645605E2,1.0392606E4,8.526848E2,8.1070195E3,5.0707324E2,5.6970654E3,4.519751E2,4.0212456E3,1.0396337E2,1.1094766E3,5.4194043E3,4.0446365E3],"tree_param":{"num_deleted":"0","num_feature":"21","num_nodes":"63","size_leaf_vector":"0"}},{"base_weights":[-1.873655E-1,-4.4841436E-3,-3.5948837E-1,-3.8577953E-1,3.958195E-2,-3.0609605E-1,-6.691503E-1,-2.3422414E-1,-5.814041E-1,1.2567721E-1,-9.0092726E-2,-1.9583336E-1,-4.6645376E-1,-5.891837E-1,-7.8906757E-1,-4.7316042E-1,-6.839645E-2,-5.004597E-1,-7.172915E-1,-3.4340197E-1,1.8055217E-1,2.6544838E-3,-3.915788E-1,-4.255644E-1,-1.623035E-1,-4.087466E-1,-6.448673E-1,-5.4479724E-1,-7.118488E-1,-7.5529844E-1,-8.8757575E-1,-6.629012E-1,-3.8432238E-1,-2.2325893E-1,1.0710306E-1,-6.4247775E-1,-3.965786E-1,-7.739731E-1,-5.191667E-1,-5.8258605E-1,-1.2619919E-1,-1.6390835E-1,2.2556081E-1,-2.3555191E-1,7.830404E-2,-1.8506496E-1,-5.515045E-1,-5.11378E-1,-3.2882503E-1,-2.3402633E-1,-5.276329E-2,-7.317513E-1,-3.861488E-1,-5.8794886E-1,-7.498115E-1,-5.9148633E-1,-4.4651866E-1,-6.7553896E-1,-8.0955243E-1,-6.928511E-1,-8.168939E-1,-8.5214317E-1,-9.2396325E-1],"categories":[],"categories_nodes":[],"categories_segments":[],"categories_sizes":[],"default_left":[false,false,false,false,false,false,false,false,false,false,false,false,false,false,false,false,false,false,false,false,false,false,false,false,false,false,false,false,false,false,false,false,false,false,false,false,false,false,false,false,false,false,false,false,false,false,false,false,false,false,false,false,false,false,false,false,false,false,false,false,false,false,false],"id":13,"left_children":[1,3,5,7,9,11,13,15,17,19,21,23,25,27,29,31,33,35,37,39,41,43,45,47,49,51,53,55,57,59,61,-1,-1,-1,-1,-1,-1,-1,-1,-1,-1,-1,-1,-1,-1,-1,-1,-1,-1,-1,-1,-1,-1,-1,-1,-1,-1,-1,-1,-1,-1,-1,-1],"loss_changes":[2.2182945E4,5.740965E3,6.0020415E3,1.0493094E3,3.4194646E3,5.474913E3,5.114975E2,7.902995E2,1.6959406E2,4.7382017E3,3.4172822E3,1.4132843E3,1.2986763E3,1.740242E2,7.037094E1,1.374904E2,3.200724E2,1.4265022E2,6.43473E1,1.00147906E3,2.5549583E3,1.684208E3,9.494696E2,1.9382776E2,1.2579515E3,6.955632E2,1.8372713E2,1.0768741E2,2.9636894E1,6.063392E1,6.234532E0,0E0,0E0,0E0,0E0,0E0,0E0,0E0,0E0,0E0,0E0,0E0,0E0,0E0,0E0,0E0,0E0,0E0,0E0,0E0,0E0,0E0,0E0,0E0,0E0,0E0,0E0,0E0,0E0,0E0,0E0,0E0,0E0],"parents":[2147483647,0,0,1,1,2,2,3,3,4,4,5,5,6,6,7,7,8,8,9,9,10,10,11,11,12,12,13,13,14,14,15,15,16,16,17,17,18,18,19,19,20,20,21,21,22,22,23,23,24,24,25,25,26,26,27,27,28,28,29,29,30,30],"right_children":[2,4,6,8,10,12,14,16,18,20,22,24,26,28,30,32,34,36,38,40,42,44,46,48,50,52,54,56,58,60,62,-1,-1,-1,-1,-1,-1,-1,-1,-1,-1,-1,-1,-1,-1,-1,-1,-1,-1,-1,-1,-1,-1,-1,-1,-1,-1,-1,-1,-1,-1,-1,-1],"split_conditions":[2.1674116E0,5.511718E0,3.304178E0,5.171875E1,1.5160989E0,1.114375E2,3.6586585E0,4.3476553E0,6.675E1,6.425E1,1.199375E2,4.68749E-1,1.8975E2,1.46875E2,1.46875E2,3.138671E0,7.725E1,4.3476553E0,1.8079412E0,1.126749E0,4.4872946E-1,1.0961814E-1,6.88125E1,4.387197E-1,7.3779196E-1,4.5873922E-1,2.65E2,8.115224E-1,2.3475E2,3.9219685E0,3.9219685E0,-1.5467696E-1,-8.967522E-2,-5.209375E-2,2.4990713E-2,-1.4991148E-1,-9.253501E-2,-1.8059373E-1,-1.211389E-1,-1.3593675E-1,-2.9446477E-2,-3.8245283E-2,5.2630857E-2,-5.4962113E-2,1.8270941E-2,-4.318182E-2,-1.2868439E-1,-1.1932153E-1,-7.672584E-2,-5.4606143E-2,-1.2311434E-2,-1.7074198E-1,-9.010139E-2,-1.3718806E-1,-1.7495601E-1,-1.3801348E-1,-1.0418769E-1,-1.5762576E-1,-1.8889557E-1,-1.6166526E-1,-1.9060858E-1,-1.988334E-1,-2.1559143E-1],"split_indices":[12,11,12,4,12,0,12,11,4,0,0,20,0,0,0,11,0,11,12,12,20,17,4,20,17,19,0,17,0,12,12,0,0,0,0,0,0,0,0,0,0,0,0,0,0,0,0,0,0,0,0,0,0,0,0,0,0,0,0,0,0,0,0],"split_type":[0,0,0,0,0,0,0,0,0,0,0,0,0,0,0,0,0,0,0,0,0,0,0,0,0,0,0,0,0,0,0,0,0,0,0,0,0,0,0,0,0,0,0,0,0,0,0,0,0,0,0,0,0,0,0,0,0,0,0,0,0,0,0],"sum_hessian":[7.047103E5,3.4167744E5,3.630329E5,3.539589E4,3.0628156E5,3.096454E5,5.338749E4,1.9945666E4,1.5450226E4,1.8407089E5,1.2221066E5,1.8348355E5,1.2616187E5,3.203255E4,2.1354936E4,8.170778E3,1.1774889E4,9.685512E3,5.7647134E3,1.9277629E4,1.6479327E5,9.3460164E4,2.8750488E4,2.336763E4,1.601159E5,9.53308E4,3.0831074E4,2.3525338E4,8.507214E3,1.5909678E4,5.445258E3,2.6035784E3,5.5671997E3,6.255076E3,5.5198125E3,4.0894932E3,5.596019E3,4.4800947E3,1.2846187E3,9.173773E3,1.0103855E4,1.9043879E4,1.4574939E5,2.252645E4,7.093372E4,1.2548557E4,1.6201932E4,1.2380819E4,1.09868125E4,9.675998E4,6.3355934E4,6.2313154E3,8.909948E4,1.9993709E4,1.0837364E4,1.5945234E4,7.580104E3,6.208024E3,2.2991897E3,7.906295E3,8.0033823E3,2.7711995E3,2.674058E3],"tree_param":{"num_deleted":"0","num_feature":"21","num_nodes":"63","size_leaf_vector":"0"}},{"base_weights":[-1.873655E-1,-5.2180535E-1,-1.5998062E-1,-5.529573E-1,-8.427706E-2,-6.5049726E-1,-1.4826299E-1,-6.4062893E-1,-4.8939773E-1,-4.6588725E-1,-5.266387E-2,-7.386681E-1,-5.4537165E-1,-1.2858038E-1,-4.24918E-1,-6.9805056E-1,-4.873614E-1,-5.5428416E-1,-3.4554192E-1,-5.7695174E-1,-3.3525667E-1,-5.111485E-1,-3.4198266E-2,-7.500449E-1,-2.9451892E-1,-5.644363E-1,3.042153E-3,-4.265238E-1,-1.0817446E-1,-3.548934E-1,-6.3344586E-1,-7.401319E-1,-6.569394E-1,-5.2320445E-1,-3.5472098E-1,-6.281847E-1,-4.6052352E-1,-6.69553E-1,-3.270028E-1,-6.018515E-1,4.4504666E-1,-3.5544342E-1,6.103366E-1,-6.66488E-1,-2.0939426E-1,-7.978061E-2,7.950563E-2,-7.8992623E-1,-6.2040025E-1,-9.0573406E-1,-2.1533565E-1,-5.8908653E-1,-4.0227792E-1,-4.6576923E-1,7.568967E-2,-5.053036E-1,-3.4617937E-1,-8.770291E-2,-2.098431E-1,-4.2357203E-1,-2.008971E-1,-6.0061276E-1,-7.385169E-1],"categories":[],"categories_nodes":[],"categories_segments":[],"categories_sizes":[],"default_left":[false,false,false,false,false,false,false,false,false,false,false,false,false,false,false,false,false,false,false,false,false,false,false,false,false,false,false,false,false,false,false,false,false,false,false,false,false,false,false,false,false,false,false,false,false,false,false,false,false,false,false,false,false,false,false,false,false,false,false,false,false,false,false],"id":14,"left_children":[1,3,5,7,9,11,13,15,17,19,21,23,25,27,29,31,33,35,37,39,41,43,45,47,49,51,53,55,57,59,61,-1,-1,-1,-1,-1,-1,-1,-1,-1,-1,-1,-1,-1,-1,-1,-1,-1,-1,-1,-1,-1,-1,-1,-1,-1,-1,-1,-1,-1,-1,-1,-1],"loss_changes":[6.4540815E3,7.2691516E2,3.7438176E3,2.771387E2,4.2757515E1,1.404582E2,3.464134E3,1.8379901E2,2.6927878E2,3.740921E0,2.7718672E1,4.152781E1,7.251801E1,3.6109158E3,6.16777E2,2.58414E1,2.6940474E1,1.3755174E2,5.3701168E1,3.962268E0,2.6411579E0,5.8025155E0,1.6334204E1,4.1158394E1,9.871504E0,2.6555815E1,8.005041E0,2.4078894E2,1.1568973E3,3.3448883E2,3.6196644E1,0E0,0E0,0E0,0E0,0E0,0E0,0E0,0E0,0E0,0E0,0E0,0E0,0E0,0E0,0E0,0E0,0E0,0E0,0E0,0E0,0E0,0E0,0E0,0E0,0E0,0E0,0E0,0E0,0E0,0E0,0E0,0E0],"parents":[2147483647,0,0,1,1,2,2,3,3,4,4,5,5,6,6,7,7,8,8,9,9,10,10,11,11,12,12,13,13,14,14,15,15,16,16,17,17,18,18,19,19,20,20,21,21,22,22,23,23,24,24,25,25,26,26,27,27,28,28,29,29,30,30],"right_children":[2,4,6,8,10,12,14,16,18,20,22,24,26,28,30,32,34,36,38,40,42,44,46,48,50,52,54,56,58,60,62,-1,-1,-1,-1,-1,-1,-1,-1,-1,-1,-1,-1,-1,-1,-1,-1,-1,-1,-1,-1,-1,-1,-1,-1,-1,-1,-1,-1,-1,-1,-1,-1],"split_conditions":[6.390624E0,6.9091696E-1,4.4872946E-1,4.843749E0,3.8632803E0,4.2895406E-1,2.6312498E1,4.50625E1,1.0961814E-1,3.138671E0,4.2895406E-1,1.013125E2,1.013125E2,4.718749E0,3.9875E1,3.53125E1,6.228125E1,4.09375E1,4.4872946E-1,2.1523428E0,5.4833883E-1,9.5898336E-1,4.09375E1,8.115224E-1,1.1218749E1,1.4156249E1,-1.1884775E0,3.8632803E0,1.3031249E1,7.77831E-1,1.9484373E1,-1.7269745E-1,-1.5328586E-1,-1.2208104E-1,-8.276823E-2,-1.4657642E-1,-1.07455485E-1,-1.5622903E-1,-7.630065E-2,-1.4043203E-1,1.03844225E-1,-8.29368E-2,1.4241187E-1,-1.5551387E-1,-4.885866E-2,-1.8615475E-2,1.8551314E-2,-1.8431613E-1,-1.4476006E-1,-2.1133795E-1,-5.0244987E-2,-1.3745353E-1,-9.386485E-2,-1.0867949E-1,1.7660923E-2,-1.1790418E-1,-8.077519E-2,-2.0464012E-2,-4.896339E-2,-9.883347E-2,-4.687599E-2,-1.4014298E-1,-1.7232062E-1],"split_indices":[3,16,18,3,7,18,3,8,16,7,18,8,8,7,3,8,8,8,18,2,18,16,8,16,3,7,10,7,7,16,7,0,0,0,0,0,0,0,0,0,0,0,0,0,0,0,0,0,0,0,0,0,0,0,0,0,0,0,0,0,0,0,0],"split_type":[0,0,0,0,0,0,0,0,0,0,0,0,0,0,0,0,0,0,0,0,0,0,0,0,0,0,0,0,0,0,0,0,0,0,0,0,0,0,0,0,0,0,0,0,0,0,0,0,0,0,0,0,0,0,0,0,0,0,0,0,0,0,0],"sum_hessian":[7.047103E5,5.3334973E4,6.513754E5,4.9789688E4,3.5452822E3,1.5195983E4,6.361794E5,2.0921836E4,2.8867854E4,2.7017688E2,3.2751052E3,8.261163E3,6.9348203E3,5.93926E5,4.2253383E4,1.5217171E4,5.7046646E3,1.9892465E4,8.97539E3,1.4417773E2,1.2599916E2,1.2576599E2,3.1493394E3,8.054168E3,2.0699493E2,6.701814E3,2.3300642E2,3.8068863E4,5.558571E5,3.1633436E4,1.0619948E4,7.5114546E3,7.705716E3,4.488741E3,1.2159233E3,1.1121216E4,8.771248E3,4.8385568E2,8.491533E3,1.4114989E2,3.0278473E0,1.23976585E2,2.022576E0,8.222753E1,4.3538464E1,2.2483179E3,9.010216E2,6.1555137E3,1.8986544E3,2.2543484E1,1.8445145E2,5.8151934E3,8.866202E2,3.053642E1,2.0247E2,1.9218918E4,1.8849943E4,4.6269312E5,9.316401E4,2.1875666E4,9.7577705E3,8.0966035E3,2.5233447E3],"tree_param":{"num_deleted":"0","num_feature":"21","num_nodes":"63","size_leaf_vector":"0"}},{"base_weights":[-7.704442E-2,-2.7748697E-2,-4.9252817E-1,8.2625516E-2,-1.3444361E-1,-3.6627457E-1,-6.6084737E-1,-2.8086358E-1,1.3796426E-1,-3.6916487E-2,-3.5325834E-1,-2.4115488E-1,-4.6987706E-1,-5.981115E-1,-7.862372E-1,-4.8333248E-1,-8.2933605E-2,2.4684578E-1,1.9312002E-2,-3.6606058E-1,4.660307E-3,-2.930122E-1,-5.6474805E-1,-1.5475635E-1,-4.53073E-1,-3.291956E-1,-5.508552E-1,-4.5226726E-1,-6.396086E-1,-5.611535E-1,-8.0293256E-1,-3.4236154E-1,-7.265595E-1,-4.2602852E-1,6.913643E-2,3.6561072E-1,9.100297E-2,5.0914142E-2,-4.3536356E-1,-4.3453252E-1,-2.5931892E-1,9.600226E-2,-1.3598303E-1,-2.7932605E-1,-6.3763124E-1,-3.802859E-1,-6.243496E-1,-4.6562845E-1,-8.354247E-2,-3.939676E-1,-5.545002E-1,1.9829359E-2,-4.0541077E-1,-5.1252747E-1,-7.1905786E-1,-2.8683227E-1,-6.111372E-1,-6.8275815E-1,-5.314225E-1,-1.8121536E-1,-7.0902354E-1,-7.2725993E-1,-8.358311E-1],"categories":[],"categories_nodes":[],"categories_segments":[],"categories_sizes":[],"default_left":[false,false,false,false,false,false,false,false,false,false,false,false,false,false,false,false,false,false,false,false,false,false,false,false,false,false,false,false,false,false,false,false,false,false,false,false,false,false,false,false,false,false,false,false,false,false,false,false,false,false,false,false,false,false,false,false,false,false,false,false,false,false,false],"id":15,"left_children":[1,3,5,7,9,11,13,15,17,19,21,23,25,27,29,31,33,35,37,39,41,43,45,47,49,51,53,55,57,59,61,-1,-1,-1,-1,-1,-1,-1,-1,-1,-1,-1,-1,-1,-1,-1,-1,-1,-1,-1,-1,-1,-1,-1,-1,-1,-1,-1,-1,-1,-1,-1,-1],"loss_changes":[1.2920993E4,6.6412993E3,1.4216688E3,5.575853E3,6.119447E3,4.955163E2,2.2511215E2,1.4677201E3,3.1079512E3,2.7143806E3,1.1262478E3,3.1706857E2,2.3808447E2,1.1541354E2,3.5474007E1,6.205353E2,9.6638495E2,2.3218987E3,1.6541731E3,1.6247372E2,2.2623867E3,3.2435254E2,2.152403E2,2.723977E2,2.9852026E1,2.0332681E2,8.51982E1,1.112131E2,6.910265E1,3.714511E1,2.1542353E1,0E0,0E0,0E0,0E0,0E0,0E0,0E0,0E0,0E0,0E0,0E0,0E0,0E0,0E0,0E0,0E0,0E0,0E0,0E0,0E0,0E0,0E0,0E0,0E0,0E0,0E0,0E0,0E0,0E0,0E0,0E0,0E0],"parents":[2147483647,0,0,1,1,2,2,3,3,4,4,5,5,6,6,7,7,8,8,9,9,10,10,11,11,12,12,13,13,14,14,15,15,16,16,17,17,18,18,19,19,20,20,21,21,22,22,23,23,24,24,25,25,26,26,27,27,28,28,29,29,30,30],"right_children":[2,4,6,8,10,12,14,16,18,20,22,24,26,28,30,32,34,36,38,40,42,44,46,48,50,52,54,56,58,60,62,-1,-1,-1,-1,-1,-1,-1,-1,-1,-1,-1,-1,-1,-1,-1,-1,-1,-1,-1,-1,-1,-1,-1,-1,-1,-1,-1,-1,-1,-1,-1,-1],"split_conditions":[3.1437423E0,1.9150862E0,3.4626777E0,8.031249E0,1.185625E2,9.3875E1,3.907585E0,1.0729881E-1,2.2242584E0,1.0882491E0,1.9525E2,2.6826377E0,1.7181768E0,8.882812E0,6.2539053E0,8.95625E1,1.1607693E0,1.3805226E0,2.08375E2,9.0581304E-1,2.4934103E0,3.4160666E0,1.1950045E0,1.2444767E0,3.1703005E0,1.0539062E1,1.76375E2,2.340742E0,8.896474E-1,2.03105E0,1.9918762E0,-7.988436E-2,-1.6953056E-1,-9.940665E-2,1.6131835E-2,8.530917E-2,2.1234026E-2,1.1879967E-2,-1.0158483E-1,-1.0139092E-1,-6.050775E-2,2.2400526E-2,-3.1729374E-2,-6.517608E-2,-1.4878063E-1,-8.8733375E-2,-1.4568157E-1,-1.0864664E-1,-1.9493245E-2,-9.192577E-2,-1.2938339E-1,4.6268506E-3,-9.459585E-2,-1.19589746E-1,-1.6778016E-1,-6.692753E-2,-1.4259869E-1,-1.5931024E-1,-1.2399858E-1,-4.2283583E-2,-1.6543883E-1,-1.6969399E-1,-1.9502726E-1],"split_indices":[13,13,13,3,0,0,13,16,14,14,0,14,14,3,3,0,13,13,0,14,14,14,14,14,14,3,0,14,16,14,14,0,0,0,0,0,0,0,0,0,0,0,0,0,0,0,0,0,0,0,0,0,0,0,0,0,0,0,0,0,0,0,0],"split_type":[0,0,0,0,0,0,0,0,0,0,0,0,0,0,0,0,0,0,0,0,0,0,0,0,0,0,0,0,0,0,0,0,0,0,0,0,0,0,0,0,0,0,0,0,0,0,0,0,0,0,0,0,0,0,0,0,0,0,0,0,0,0,0],"sum_hessian":[6.3085906E5,5.6394944E5,6.690961E4,2.771954E5,2.8675406E5,3.8234027E4,2.8675578E4,3.662464E4,2.4057075E5,1.9834956E5,8.84045E4,1.7320074E4,2.0913953E4,1.9116742E4,9.558837E3,1.8104021E4,1.8520621E4,1.254501E5,1.1512065E5,2.2244266E4,1.761053E5,6.880633E4,1.9598172E4,1.2305061E4,5.0150137E3,7.642274E3,1.3271679E4,4.237096E3,1.48796455E4,6.6244977E2,8.896387E3,1.1462771E4,6.6412505E3,5.687312E3,1.2833309E4,7.11935E4,5.4256598E4,1.0764004E5,7.4806123E3,1.354953E4,8.694734E3,1.0676574E5,6.9339555E4,6.6179875E4,2.6264502E3,4.7877705E3,1.4810401E4,2.2924072E3,1.0012653E4,3.171656E3,1.8433577E3,1.3698468E3,6.2724272E3,1.0812026E4,2.4596526E3,2.0770356E3,2.1600603E3,1.06333E4,4.2463457E3,1.8621463E2,4.7623517E2,2.7027263E3,6.1936606E3],"tree_param":{"num_deleted":"0","num_feature":"21","num_nodes":"63","size_leaf_vector":"0"}},{"base_weights":[-7.704442E-2,6.66836E-2,-2.495176E-1,-3.1576264E-1,1.16517976E-1,-1.9883746E-1,-5.7892364E-1,-5.24228E-1,-7.1936496E-2,-1.7477964E-1,1.5967284E-1,-6.270472E-2,-3.1267804E-1,-4.745909E-1,-6.83226E-1,-3.7082574E-1,-7.1727294E-1,-4.4238606E-1,-1.0834462E-2,-4.236281E-1,-1.0865716E-1,2.4458386E-1,2.8093241E-2,-1.2907918E-1,9.213249E-3,-2.5882986E-1,-4.786032E-1,-3.364479E-1,-5.221937E-1,-6.0507387E-1,-7.470765E-1,-5.2297217E-1,-1.9999766E-1,-8.017669E-1,-5.428664E-1,-5.1913965E-1,-2.5815558E-1,3.621555E-2,-4.7734496E-1,-5.26188E-1,-3.240495E-1,-2.91411E-1,-7.4672356E-2,-4.5655686E-2,2.9741806E-1,1.6994776E-1,-2.3498043E-1,-2.9619464E-1,-1.00360416E-1,6.2397655E-2,-8.480397E-2,-2.986444E-1,-1.8713318E-1,-4.273479E-1,-6.2165636E-1,-2.1951623E-1,-3.7470248E-1,-5.814175E-1,-3.8834068E-1,-5.2623826E-1,-6.8264234E-1,-6.841565E-1,-8.1059694E-1],"categories":[],"categories_nodes":[],"categories_segments":[],"categories_sizes":[],"default_left":[false,false,false,false,false,false,false,false,false,false,false,false,false,false,false,false,false,false,false,false,false,false,false,false,false,false,false,false,false,false,false,false,false,false,false,false,false,false,false,false,false,false,false,false,false,false,false,false,false,false,false,false,false,false,false,false,false,false,false,false,false,false,false],"id":16,"left_children":[1,3,5,7,9,11,13,15,17,19,21,23,25,27,29,31,33,35,37,39,41,43,45,47,49,51,53,55,57,59,61,-1,-1,-1,-1,-1,-1,-1,-1,-1,-1,-1,-1,-1,-1,-1,-1,-1,-1,-1,-1,-1,-1,-1,-1,-1,-1,-1,-1,-1,-1,-1,-1],"loss_changes":[1.5638551E4,6.5583403E3,4.787074E3,2.0163425E3,3.8270798E3,3.8514202E3,4.1575467E2,6.3303064E2,4.1388626E2,6.4632574E2,2.9624617E3,5.4027026E2,1.2091226E3,1.2554401E2,9.494788E1,3.096622E2,1.3908936E2,3.647434E1,3.4456323E2,8.4047005E1,1.927453E2,2.4712935E3,3.8811091E3,2.824541E2,2.7163263E2,2.9163223E2,2.4286987E2,2.1846825E1,1.1247361E2,5.2240536E1,4.148066E1,0E0,0E0,0E0,0E0,0E0,0E0,0E0,0E0,0E0,0E0,0E0,0E0,0E0,0E0,0E0,0E0,0E0,0E0,0E0,0E0,0E0,0E0,0E0,0E0,0E0,0E0,0E0,0E0,0E0,0E0,0E0,0E0],"parents":[2147483647,0,0,1,1,2,2,3,3,4,4,5,5,6,6,7,7,8,8,9,9,10,10,11,11,12,12,13,13,14,14,15,15,16,16,17,17,18,18,19,19,20,20,21,21,22,22,23,23,24,24,25,25,26,26,27,27,28,28,29,29,30,30],"right_children":[2,4,6,8,10,12,14,16,18,20,22,24,26,28,30,32,34,36,38,40,42,44,46,48,50,52,54,56,58,60,62,-1,-1,-1,-1,-1,-1,-1,-1,-1,-1,-1,-1,-1,-1,-1,-1,-1,-1,-1,-1,-1,-1,-1,-1,-1,-1,-1,-1,-1,-1,-1,-1],"split_conditions":[2.2943206E0,7.5390615E0,3.3413558E0,1.0729881E-1,5.9882803E0,9.5375E1,3.6013117E0,8.1375E1,1.0050133E0,4.0546865E0,1.5558017E0,4.7949117E-1,1.6925E2,9.648437E0,1.2171874E1,5.7539053E0,1.7933239E0,7.207021E-1,9.5375E1,3.3144522E0,9.076684E-1,7.4625E1,1.085E2,5.7539053E0,8.00625E1,8.5204977E-1,2.54125E2,5.93125E1,8.896474E-1,3.8589938E0,3.8589938E0,-1.2202684E-1,-4.6666123E-2,-1.8707894E-1,-1.2666883E-1,-1.2113258E-1,-6.0236305E-2,8.450296E-3,-1.1138049E-1,-1.227772E-1,-7.5611554E-2,-6.7995906E-2,-1.742355E-2,-1.0652994E-2,6.939755E-2,3.965448E-2,-5.4828767E-2,-6.9112085E-2,-2.341743E-2,1.4559453E-2,-1.9787593E-2,-6.968369E-2,-4.3664407E-2,-9.971451E-2,-1.4505315E-1,-5.1220454E-2,-8.743058E-2,-1.3566409E-1,-9.061283E-2,-1.2278893E-1,-1.5928322E-1,-1.5963651E-1,-1.8913929E-1],"split_indices":[12,3,12,16,11,0,12,0,12,11,12,16,0,3,3,3,12,16,0,11,12,0,0,3,0,16,0,0,16,12,12,0,0,0,0,0,0,0,0,0,0,0,0,0,0,0,0,0,0,0,0,0,0,0,0,0,0,0,0,0,0,0,0],"split_type":[0,0,0,0,0,0,0,0,0,0,0,0,0,0,0,0,0,0,0,0,0,0,0,0,0,0,0,0,0,0,0,0,0,0,0,0,0,0,0,0,0,0,0,0,0,0,0,0,0,0,0,0,0,0,0,0,0,0,0,0,0,0,0],"sum_hessian":[6.3085906E5,3.4410488E5,2.867542E5,3.9668645E4,3.0443622E5,2.4852019E5,3.8233996E4,2.1384379E4,1.8284266E4,3.9281426E4,2.6515478E5,1.13179516E5,1.3534067E5,1.911699E4,1.9117008E4,1.1917286E4,9.467093E3,2.5879282E3,1.5696338E4,8.245293E3,3.1036133E4,1.6115639E5,1.039984E5,5.8857766E4,5.4321746E4,1.0218187E5,3.3158812E4,4.9013535E3,1.4215636E4,8.600543E3,1.0516465E4,6.3022153E3,5.615071E3,6.375019E3,3.0920735E3,1.8255532E3,7.6237494E2,1.425915E4,1.4371873E3,4.0597322E3,4.185561E3,4.865303E3,2.6170828E4,2.48185E4,1.3633789E5,6.756589E4,3.6432508E4,8.630028E3,5.022774E4,3.4695348E4,1.9626402E4,6.56963E4,3.6485566E4,2.4415008E4,8.743805E3,1.209882E3,3.6914717E3,9.852854E3,4.3627827E3,4.2692944E3,4.3312485E3,5.2891147E3,5.22735E3],"tree_param":{"num_deleted":"0","num_feature":"21","num_nodes":"63","size_leaf_vector":"0"}},{"base_weights":[-7.704442E-2,6.66836E-2,-2.495176E-1,2.2034006E-1,-1.2487611E-1,-1.9883746E-1,-5.7892364E-1,-2.6583663E-1,3.036639E-1,-6.42107E-2,-5.999054E-1,-7.955011E-2,-3.0643895E-1,-4.745909E-1,-6.83226E-1,-5.005272E-1,-6.412529E-2,-6.92426E-2,3.6797318E-1,3.3392526E-2,-2.3158558E-1,-4.7773212E-1,-7.464059E-1,9.4726786E-2,-1.8485674E-1,-1.7595589E-1,-4.0531462E-1,-3.364479E-1,-5.221937E-1,-6.0507387E-1,-7.470765E-1,-6.549141E-1,-2.970326E-1,-4.448312E-1,4.9892515E-2,8.3910316E-2,-2.352684E-1,4.859973E-1,2.172503E-1,-1.0561251E-1,1.8773887E-1,-6.425162E-1,-1.7654139E-1,-5.493503E-1,-3.6521122E-1,-6.788784E-1,-8.262687E-1,-1.828813E-1,1.9684878E-1,-3.316856E-2,-2.5097632E-1,-1.4278884E-1,-5.2770615E-1,-3.6646834E-1,-6.79728E-1,-4.8513192E-1,-2.9826728E-1,-3.339605E-1,-5.7832736E-1,-5.2623826E-1,-6.8264234E-1,-6.841565E-1,-8.1059694E-1],"categories":[],"categories_nodes":[],"categories_segments":[],"categories_sizes":[],"default_left":[false,false,false,false,false,false,false,false,false,false,false,false,false,false,false,false,false,false,false,false,false,false,false,false,false,false,false,false,false,false,false,false,false,false,false,false,false,false,false,false,false,false,false,false,false,false,false,false,false,false,false,false,false,false,false,false,false,false,false,false,false,false,false],"id":17,"left_children":[1,3,5,7,9,11,13,15,17,19,21,23,25,27,29,31,33,35,37,39,41,43,45,47,49,51,53,55,57,59,61,-1,-1,-1,-1,-1,-1,-1,-1,-1,-1,-1,-1,-1,-1,-1,-1,-1,-1,-1,-1,-1,-1,-1,-1,-1,-1,-1,-1,-1,-1,-1,-1],"loss_changes":[1.5638551E4,1.0128572E4,4.787074E3,7.735243E3,4.413786E3,3.1898684E3,4.1575467E2,1.3225281E3,3.9091602E3,2.2187898E3,3.1009207E2,2.16308E3,1.6856553E3,1.2554401E2,9.494788E1,4.0549274E2,6.5224194E2,6.096983E2,2.4731084E3,1.8406722E3,1.131493E3,7.6037575E1,4.1964844E1,1.2586007E3,7.368527E2,6.570866E2,7.921293E2,2.7685225E1,1.50023E2,5.2240536E1,4.148066E1,0E0,0E0,0E0,0E0,0E0,0E0,0E0,0E0,0E0,0E0,0E0,0E0,0E0,0E0,0E0,0E0,0E0,0E0,0E0,0E0,0E0,0E0,0E0,0E0,0E0,0E0,0E0,0E0,0E0,0E0,0E0,0E0],"parents":[2147483647,0,0,1,1,2,2,3,3,4,4,5,5,6,6,7,7,8,8,9,9,10,10,11,11,12,12,13,13,14,14,15,15,16,16,17,17,18,18,19,19,20,20,21,21,22,22,23,23,24,24,25,25,26,26,27,27,28,28,29,29,30,30],"right_children":[2,4,6,8,10,12,14,16,18,20,22,24,26,28,30,32,34,36,38,40,42,44,46,48,50,52,54,56,58,60,62,-1,-1,-1,-1,-1,-1,-1,-1,-1,-1,-1,-1,-1,-1,-1,-1,-1,-1,-1,-1,-1,-1,-1,-1,-1,-1,-1,-1,-1,-1,-1,-1],"split_conditions":[2.2943206E0,2.2488163E0,3.3413558E0,8.257812E0,3.3446007E0,1.9559904E0,3.6013117E0,1.0729881E-1,6.308593E0,6.85625E1,3.628786E0,5.796875E1,1.1249999E1,9.648437E0,1.2171874E1,6.6445303E0,1.1607693E0,5.1E1,1.5457793E0,4.7949117E-1,7.2578115E0,6.7236227E-1,3.907585E0,1.0656539E0,8.789062E0,3.4626777E0,3.3446007E0,1.5049094E0,1.3805226E0,3.8589938E0,3.8589938E0,-1.5281329E-1,-6.93076E-2,-1.0379395E-1,1.1641587E-2,1.9579073E-2,-5.489596E-2,1.1339937E-1,5.069174E-2,-2.4642918E-2,4.3805737E-2,-1.4992045E-1,-4.119299E-2,-1.2818174E-1,-8.521595E-2,-1.5840496E-1,-1.9279602E-1,-4.2672303E-2,4.5931384E-2,-7.739331E-3,-5.8561143E-2,-3.33174E-2,-1.2313143E-1,-8.550928E-2,-1.5860319E-1,-1.13197446E-1,-6.9595695E-2,-7.792412E-2,-1.3494305E-1,-1.2278893E-1,-1.5928322E-1,-1.5963651E-1,-1.8913929E-1],"split_indices":[12,13,12,3,13,13,12,15,7,4,13,4,3,3,3,3,13,4,13,15,7,15,13,13,7,13,13,13,13,12,12,0,0,0,0,0,0,0,0,0,0,0,0,0,0,0,0,0,0,0,0,0,0,0,0,0,0,0,0,0,0,0,0],"split_type":[0,0,0,0,0,0,0,0,0,0,0,0,0,0,0,0,0,0,0,0,0,0,0,0,0,0,0,0,0,0,0,0,0,0,0,0,0,0,0,0,0,0,0,0,0,0,0,0,0,0,0,0,0,0,0,0,0,0,0,0,0,0,0],"sum_hessian":[6.3085906E5,3.4410488E5,2.867542E5,1.9094297E5,1.531619E5,2.4852019E5,3.8233996E4,2.7936625E4,1.6300634E5,1.3581789E5,1.7344004E4,1.1786093E5,1.30659266E5,1.911699E4,1.9117008E4,1.291203E4,1.5024594E4,2.397629E4,1.3903005E5,8.579063E4,5.0027266E4,9.459541E3,7.884464E3,4.439299E4,7.3467945E4,5.6327906E4,7.433135E4,4.9013535E3,1.4215636E4,8.600543E3,1.0516465E4,7.3406353E3,5.571395E3,3.4620142E3,1.156258E4,1.2471899E4,1.150439E4,7.797176E4,6.1058293E4,4.5138766E4,4.0651867E4,5.9083086E3,4.4118957E4,5.778018E3,3.6815225E3,4.27731E3,3.6071536E3,1.1938532E4,3.2454455E4,2.230301E4,5.1164934E4,5.1475605E4,4.852303E3,6.5115816E4,9.215538E3,9.9906445E2,3.9022893E3,3.2670806E3,1.0948556E4,4.2692944E3,4.3312485E3,5.2891147E3,5.22735E3],"tree_param":{"num_deleted":"0","num_feature":"21","num_nodes":"63","size_leaf_vector":"0"}},{"base_weights":[-3.7570853E-2,-9.491828E-3,-3.801249E-1,1.9622931E-2,-3.1979796E-1,-3.16232E-1,-6.356352E-1,-2.8198996E-1,4.0183168E-2,-2.7205417E-1,-5.923494E-1,-2.0672849E-1,-4.4532338E-1,-5.1939887E-1,-7.075399E-1,-4.3594784E-1,3.3618823E-1,1.3814932E-1,-2.4981497E-2,-2.1060276E-1,-3.6828667E-1,-5.397249E-1,-7.52127E-1,-4.336495E-1,-1.6964838E-1,-2.820088E-1,-5.2532655E-1,-2.2831038E-1,-6.008891E-1,-6.543363E-1,-7.990872E-1,-5.2949303E-1,-2.7260682E-1,9.9522555E-1,-4.4936384E-3,-2.5106072E-1,1.6766994E-1,7.444259E-2,-1.5327194E-1,-1.3770825E-1,-3.669138E-1,-4.0305477E-2,-4.5354402E-1,-5.990613E-1,-4.1026536E-1,-3.218097E-1,-7.7298635E-1,-4.7097382E-1,-1.915824E-1,3.177617E-2,-2.010908E-1,-2.1447434E-1,-4.607187E-1,-4.3168586E-1,-7.1545655E-1,-5.407709E-1,-1.1417909E-1,-6.3917583E-1,-4.5410722E-1,-6.911E-1,-5.37433E-1,-6.883597E-1,-8.3018094E-1],"categories":[],"categories_nodes":[],"categories_segments":[],"categories_sizes":[],"default_left":[false,false,false,false,false,false,false,false,false,false,false,false,false,false,false,false,false,false,false,false,false,false,false,false,false,false,false,false,false,false,false,false,false,false,false,false,false,false,false,false,false,false,false,false,false,false,false,false,false,false,false,false,false,false,false,false,false,false,false,false,false,false,false],"id":18,"left_children":[1,3,5,7,9,11,13,15,17,19,21,23,25,27,29,31,33,35,37,39,41,43,45,47,49,51,53,55,57,59,61,-1,-1,-1,-1,-1,-1,-1,-1,-1,-1,-1,-1,-1,-1,-1,-1,-1,-1,-1,-1,-1,-1,-1,-1,-1,-1,-1,-1,-1,-1,-1,-1],"loss_changes":[5.7901143E3,5.026505E3,7.4431635E2,3.154236E3,6.2085474E2,5.156494E2,7.5871864E1,3.0895222E3,3.039938E3,2.4008673E2,5.9401608E1,1.6603792E2,2.1861966E2,8.2647995E1,2.6912603E1,3.9695477E2,1.4533207E3,2.185597E3,3.6475781E3,2.8238202E2,4.4251242E2,4.0883537E1,1.5547166E1,2.4956205E1,1.0748528E2,6.637168E1,1.9975693E2,2.7217102E1,1.5029524E1,1.4963021E1,6.5410676E0,0E0,0E0,0E0,0E0,0E0,0E0,0E0,0E0,0E0,0E0,0E0,0E0,0E0,0E0,0E0,0E0,0E0,0E0,0E0,0E0,0E0,0E0,0E0,0E0,0E0,0E0,0E0,0E0,0E0,0E0,0E0,0E0],"parents":[2147483647,0,0,1,1,2,2,3,3,4,4,5,5,6,6,7,7,8,8,9,9,10,10,11,11,12,12,13,13,14,14,15,15,16,16,17,17,18,18,19,19,20,20,21,21,22,22,23,23,24,24,25,25,26,26,27,27,28,28,29,29,30,30],"right_children":[2,4,6,8,10,12,14,16,18,20,22,24,26,28,30,32,34,36,38,40,42,44,46,48,50,52,54,56,58,60,62,-1,-1,-1,-1,-1,-1,-1,-1,-1,-1,-1,-1,-1,-1,-1,-1,-1,-1,-1,-1,-1,-1,-1,-1,-1,-1,-1,-1,-1,-1,-1,-1],"split_conditions":[3.1920311E0,3.1571393E0,3.7875652E0,8.374319E-1,3.7422311E0,2.3533916E0,2.2373393E0,9.6875E1,1.6190717E0,1.168125E2,1.38375E2,4.68749E-1,8.08125E1,1.1511131E-1,1.106875E2,6.6E1,1.1277453E0,5.921875E1,9.8875E1,2.6971543E0,1.083505E0,7.4853414E-1,1.2414254E0,1.193125E2,6.278125E1,3.1517127E0,1.8953537E0,5.08125E1,9.3603414E-1,8.984365E-1,1.1011523E0,-1.2354837E-1,-6.360826E-2,2.322193E-1,-1.0485157E-3,-5.8580834E-2,3.9122984E-2,1.7369937E-2,-3.5763454E-2,-3.2131925E-2,-8.561322E-2,-9.404611E-3,-1.0582694E-1,-1.3978097E-1,-9.572858E-2,-7.508893E-2,-1.8036348E-1,-1.0989389E-1,-4.470256E-2,7.41444E-3,-4.6921186E-2,-5.004401E-2,-1.0750103E-1,-1.007267E-1,-1.6693985E-1,-1.2617987E-1,-2.6641788E-2,-1.4914103E-1,-1.0595835E-1,-1.6125667E-1,-1.2540103E-1,-1.6061726E-1,-1.9370888E-1],"split_indices":[13,12,13,14,12,14,14,4,12,0,0,20,0,16,0,4,13,0,0,14,13,16,14,4,0,14,12,4,16,16,12,0,0,0,0,0,0,0,0,0,0,0,0,0,0,0,0,0,0,0,0,0,0,0,0,0,0,0,0,0,0,0,0],"split_type":[0,0,0,0,0,0,0,0,0,0,0,0,0,0,0,0,0,0,0,0,0,0,0,0,0,0,0,0,0,0,0,0,0,0,0,0,0,0,0,0,0,0,0,0,0,0,0,0,0,0,0,0,0,0,0,0,0,0,0,0,0,0,0],"sum_hessian":[6.0197094E5,5.563668E5,4.560415E4,5.0864378E5,4.7723035E4,3.648336E4,9.12079E3,3.2459492E4,4.7618428E5,4.061105E4,7.111983E3,1.974067E4,1.674269E4,3.488974E3,5.631816E3,2.598756E4,6.4719326E3,1.9021738E5,2.859669E5,2.4786361E4,1.582469E4,5.3532173E3,1.7587656E3,2.771161E3,1.6969508E4,5.5065044E3,1.1236186E4,7.639379E2,2.7250361E3,3.5669795E3,2.0648367E3,1.6522756E4,9.464804E3,2.2048347E3,4.267098E3,1.3409837E4,1.7680753E5,1.6110908E5,1.2485784E5,1.6904809E4,7.8815527E3,3.2651765E3,1.2559514E4,3.668274E3,1.6849434E3,8.207301E1,1.6766925E3,2.4001384E3,3.7102267E2,2.291274E3,1.4678234E4,3.997899E3,1.5086055E3,7.530579E3,3.7056067E3,2.0338548E2,5.605524E2,2.1586235E3,5.664126E2,2.709869E3,8.5711053E2,4.5777933E2,1.6070573E3],"tree_param":{"num_deleted":"0","num_feature":"21","num_nodes":"63","size_leaf_vector":"0"}},{"base_weights":[-3.7570853E-2,-9.491828E-3,-3.801249E-1,1.9622931E-2,-3.1979796E-1,-3.16232E-1,-6.356352E-1,-2.8198996E-1,4.0183168E-2,-2.7205417E-1,-5.923494E-1,-2.0672849E-1,-4.4532338E-1,-5.1939887E-1,-7.075399E-1,-4.1858917E-1,5.1434666E-1,1.3814932E-1,-2.4981497E-2,-1.8205392E-1,-3.2417348E-1,-3.3785206E-1,-6.2761205E-1,-6.0037684E-2,-3.046992E-1,-3.6793444E-1,-5.9971166E-1,-2.2831038E-1,-6.008891E-1,-6.610537E-1,-7.7711815E-1,-5.066443E-1,-2.3103447E-1,1.3385792E0,9.483956E-2,-1.3421614E-1,1.8840706E-1,-1.3738117E-2,-3.999565E-1,5.559146E-3,-2.8754643E-1,-2.202207E-1,-4.587666E-1,-4.62015E-1,3.4752768E-2,-4.2956352E-1,-6.6740674E-1,-1.0313776E-1,3.924466E-1,-4.9426585E-1,-2.5316072E-1,-4.8298934E-1,-2.6352215E-1,-4.55482E-1,-6.802637E-1,6.385565E-2,-4.370162E-1,-7.6943547E-1,-5.598669E-1,-7.017173E-1,-5.2578986E-1,-6.6920406E-1,-8.066239E-1],"categories":[],"categories_nodes":[],"categories_segments":[],"categories_sizes":[],"default_left":[false,false,false,false,false,false,false,false,false,false,false,false,false,false,false,false,false,false,false,false,false,false,false,false,false,false,false,false,false,false,false,false,false,false,false,false,false,false,false,false,false,false,false,false,false,false,false,false,false,false,false,false,false,false,false,false,false,false,false,false,false,false,false],"id":19,"left_children":[1,3,5,7,9,11,13,15,17,19,21,23,25,27,29,31,33,35,37,39,41,43,45,47,49,51,53,55,57,59,61,-1,-1,-1,-1,-1,-1,-1,-1,-1,-1,-1,-1,-1,-1,-1,-1,-1,-1,-1,-1,-1,-1,-1,-1,-1,-1,-1,-1,-1,-1,-1,-1],"loss_changes":[5.7901143E3,5.026505E3,7.4431635E2,3.154236E3,6.2085474E2,5.156494E2,7.5871864E1,3.531234E3,3.039938E3,1.9044202E2,6.362157E1,2.8369724E2,1.9983209E2,8.2647995E1,1.7705212E1,4.5748856E2,1.6434181E3,2.6038242E3,1.2056313E3,2.9481757E2,3.5971628E2,4.0163097E1,4.8941345E1,1.5423343E2,1.1551421E2,1.3388739E2,6.462337E1,4.667133E1,1.8417397E1,1.824109E1,6.625548E0,0E0,0E0,0E0,0E0,0E0,0E0,0E0,0E0,0E0,0E0,0E0,0E0,0E0,0E0,0E0,0E0,0E0,0E0,0E0,0E0,0E0,0E0,0E0,0E0,0E0,0E0,0E0,0E0,0E0,0E0,0E0,0E0],"parents":[2147483647,0,0,1,1,2,2,3,3,4,4,5,5,6,6,7,7,8,8,9,9,10,10,11,11,12,12,13,13,14,14,15,15,16,16,17,17,18,18,19,19,20,20,21,21,22,22,23,23,24,24,25,25,26,26,27,27,28,28,29,29,30,30],"right_children":[2,4,6,8,10,12,14,16,18,20,22,24,26,28,30,32,34,36,38,40,42,44,46,48,50,52,54,56,58,60,62,-1,-1,-1,-1,-1,-1,-1,-1,-1,-1,-1,-1,-1,-1,-1,-1,-1,-1,-1,-1,-1,-1,-1,-1,-1,-1,-1,-1,-1,-1,-1,-1],"split_conditions":[3.1920311E0,3.1571393E0,3.7875652E0,8.374319E-1,3.7422311E0,2.3533916E0,2.2373393E0,6.53125E1,1.6190717E0,1.9719797E0,5.855468E0,1.0742187E1,1.9957283E0,1.1511131E-1,1.3531249E1,4.490625E1,1.1277453E0,8.789062E0,3.530244E0,1.0578124E1,1.6850165E0,8.6328024E-1,1.8962559E0,6.146875E1,7.1484365E0,3.552236E-1,1.0062499E1,8.398437E0,6.6328115E0,8.803701E-1,1.1422027E0,-1.1821701E-1,-5.3908043E-2,3.1233513E-1,2.212923E-2,-3.13171E-2,4.3961648E-2,-3.2055606E-3,-9.3323186E-2,1.2971341E-3,-6.709417E-2,-5.138483E-2,-1.07045546E-1,-1.078035E-1,8.108979E-3,-1.0023149E-1,-1.5572824E-1,-2.4065478E-2,9.157088E-2,-1.153287E-1,-5.9070833E-2,-1.1269751E-1,-6.14885E-2,-1.06279135E-1,-1.587282E-1,1.48996515E-2,-1.0197044E-1,-1.7953494E-1,-1.3063562E-1,-1.6373405E-1,-1.226843E-1,-1.5614761E-1,-1.8821225E-1],"split_indices":[13,12,13,14,12,14,14,8,12,14,7,3,12,16,3,8,13,3,14,3,13,16,14,8,7,16,3,3,7,16,12,0,0,0,0,0,0,0,0,0,0,0,0,0,0,0,0,0,0,0,0,0,0,0,0,0,0,0,0,0,0,0,0],"split_type":[0,0,0,0,0,0,0,0,0,0,0,0,0,0,0,0,0,0,0,0,0,0,0,0,0,0,0,0,0,0,0,0,0,0,0,0,0,0,0,0,0,0,0,0,0,0,0,0,0,0,0,0,0,0,0,0,0,0,0,0,0,0,0],"sum_hessian":[6.0197094E5,5.563668E5,4.560415E4,5.0864378E5,4.7723035E4,3.648336E4,9.12079E3,3.2459492E4,4.7618428E5,4.061105E4,7.111983E3,1.974067E4,1.674269E4,3.488974E3,5.631816E3,2.7707223E4,4.7522705E3,1.9021738E5,2.859669E5,1.4894888E4,2.5716164E4,8.667868E2,6.2451963E3,7.9054756E3,1.1835194E4,1.1154666E4,5.5880244E3,7.639379E2,2.7250361E3,3.382453E3,2.2493633E3,1.8853828E4,8.8533955E3,1.6021779E3,3.1500925E3,2.9631502E4,1.6058588E5,2.77643E5,8.323907E3,5.361204E3,9.533684E3,1.4511143E4,1.12050205E4,6.499607E2,2.168261E2,1.0468877E3,5.1983086E3,7.2186553E3,6.8682007E2,2.5280476E3,9.307146E3,5.3051465E3,5.8495195E3,2.0048901E3,3.5831343E3,3.186107E2,4.453272E2,5.299385E2,2.1950977E3,2.5974182E3,7.8503455E2,4.880508E2,1.7613124E3],"tree_param":{"num_deleted":"0","num_feature":"21","num_nodes":"63","size_leaf_vector":"0"}},{"base_weights":[-3.7570853E-2,-2.3519503E-1,-1.26896985E-2,-2.8177616E-1,-9.242832E-2,5.135349E-4,-3.2898483E-1,-4.3692493E-1,-2.3307393E-1,-5.2929085E-1,-5.8488894E-2,-2.3890121E-1,1.27072865E-2,-2.3145081E-1,-5.3697854E-1,-5.469008E-1,-3.6441925E-1,-2.8155622E-1,-1.7132467E-1,-6.4193666E-1,-2.0155434E-1,-2.2667693E-2,-2.6519233E-1,-2.6060617E-1,4.5406554E-2,-9.578869E-2,2.6056707E-2,-5.675784E-1,-2.011243E-1,-4.935219E-1,-6.494981E-1,-6.130569E-1,-4.2398363E-1,-4.2716956E-1,-2.4814202E-1,-4.3317378E-1,-2.6033717E-1,-3.6155912E-1,-1.5583536E-1,-7.104912E-1,-2.7128747E-1,3.6831275E-1,-2.4508849E-1,-1.1123823E-1,1.1146499E-1,-3.0609939E-1,-2.9856084E-2,-2.9703093E-1,-7.556889E-2,-4.0343687E-1,6.667699E-2,1.09177545E-1,-1.6814873E-1,4.3078113E-2,-6.9965385E-2,-6.324274E-1,-3.752694E-1,-1.6426608E-1,-3.8641083E-1,-8.071699E-1,-4.7994873E-1,-5.87581E-1,-7.039324E-1],"categories":[],"categories_nodes":[],"categories_segments":[],"categories_sizes":[],"default_left":[false,false,false,false,false,false,false,false,false,false,false,false,false,false,false,false,false,false,false,false,false,false,false,false,false,false,false,false,false,false,false,false,false,false,false,false,false,false,false,false,false,false,false,false,false,false,false,false,false,false,false,false,false,false,false,false,false,false,false,false,false,false,false],"id":20,"left_children":[1,3,5,7,9,11,13,15,17,19,21,23,25,27,29,31,33,35,37,39,41,43,45,47,49,51,53,55,57,59,61,-1,-1,-1,-1,-1,-1,-1,-1,-1,-1,-1,-1,-1,-1,-1,-1,-1,-1,-1,-1,-1,-1,-1,-1,-1,-1,-1,-1,-1,-1,-1,-1],"loss_changes":[2.959964E3,4.4762857E2,2.2327988E3,3.8339835E2,2.4552138E2,1.4983248E3,4.3449622E2,9.647986E1,1.1560103E2,4.39419E1,1.137884E2,1.5350089E2,7.0732806E2,1.485761E2,3.311787E1,3.8897957E1,5.3231247E1,6.950146E1,5.001525E1,2.2369692E1,7.7018147E0,1.5563943E2,2.184263E1,1.5573096E2,1.6878065E1,7.9357776E2,7.1075024E2,1.4810168E1,9.132026E1,2.0632046E1,5.997307E0,0E0,0E0,0E0,0E0,0E0,0E0,0E0,0E0,0E0,0E0,0E0,0E0,0E0,0E0,0E0,0E0,0E0,0E0,0E0,0E0,0E0,0E0,0E0,0E0,0E0,0E0,0E0,0E0,0E0,0E0,0E0,0E0],"parents":[2147483647,0,0,1,1,2,2,3,3,4,4,5,5,6,6,7,7,8,8,9,9,10,10,11,11,12,12,13,13,14,14,15,15,16,16,17,17,18,18,19,19,20,20,21,21,22,22,23,23,24,24,25,25,26,26,27,27,28,28,29,29,30,30],"right_children":[2,4,6,8,10,12,14,16,18,20,22,24,26,28,30,32,34,36,38,40,42,44,46,48,50,52,54,56,58,60,62,-1,-1,-1,-1,-1,-1,-1,-1,-1,-1,-1,-1,-1,-1,-1,-1,-1,-1,-1,-1,-1,-1,-1,-1,-1,-1,-1,-1,-1,-1,-1,-1],"split_conditions":[4.5873922E-1,1.50125E2,2.1975E2,3.88915E-1,1.2156249E1,5.949218E0,2.9825E2,3.5912985E-1,6.0742086E-1,1.278125E2,2.9825E2,6.533193E-1,5.667968E0,1.4210937E1,1.62125E2,8.173818E-1,8.4228414E-1,6.812499E0,4.937499E0,6.533193E-1,5.949218E0,1.07875E2,9.2333883E-1,7.21875E1,3.374999E0,4.290625E1,1.45875E2,1.9335838E-1,1.62125E2,1.5843749E1,3.665625E1,-1.4304662E-1,-9.892952E-2,-9.96729E-2,-5.7899803E-2,-1.0107388E-1,-6.074534E-2,-8.4363796E-2,-3.6361583E-2,-1.6578127E-1,-6.330041E-2,8.593964E-2,-5.7187315E-2,-2.5955586E-2,2.6008498E-2,-7.142319E-2,-6.9664195E-3,-6.9307216E-2,-1.7632741E-2,-9.413527E-2,1.5557964E-2,2.547476E-2,-3.92347E-2,1.005156E-2,-1.6325256E-2,-1.475664E-1,-8.756287E-2,-3.8328752E-2,-9.016253E-2,-1.8833965E-1,-1.1198804E-1,-1.3710223E-1,-1.642509E-1],"split_indices":[20,0,0,20,3,3,0,20,15,4,0,15,7,3,4,15,15,3,7,15,3,4,15,4,7,4,0,15,4,3,3,0,0,0,0,0,0,0,0,0,0,0,0,0,0,0,0,0,0,0,0,0,0,0,0,0,0,0,0,0,0,0,0],"split_type":[0,0,0,0,0,0,0,0,0,0,0,0,0,0,0,0,0,0,0,0,0,0,0,0,0,0,0,0,0,0,0,0,0,0,0,0,0,0,0,0,0,0,0,0,0,0,0,0,0,0,0,0,0,0,0,0,0,0,0,0,0,0,0],"sum_hessian":[6.0197094E5,6.731309E4,5.346579E5,5.075278E4,1.6560314E4,5.132347E5,2.1423164E4,1.2123489E4,3.8629293E4,1.1927567E3,1.5367557E4,2.4872092E4,4.8836262E5,1.4585659E4,6.8375044E3,4.8144463E3,7.309043E3,2.1637281E4,1.6992012E4,8.8694684E2,3.0580984E2,1.3098694E4,2.268862E3,2.3108033E4,1.7640571E3,5.3504492E4,4.3485812E5,1.2055945E3,1.3380064E4,4.9363867E3,1.9011179E3,3.1272944E3,1.6871519E3,4.745439E3,2.563604E3,2.654012E3,1.898327E4,1.2776763E3,1.5714336E4,7.4773114E2,1.3921568E2,2.117438E1,2.8463544E2,7.889361E3,5.209334E3,1.932625E3,3.362371E2,1.9306857E4,3.8011765E3,7.9002335E1,1.6850548E3,1.3960272E4,3.954422E4,3.6938028E5,6.547784E4,8.9986115E2,3.0573328E2,1.116162E4,2.2184446E3,2.0233669E2,4.73405E3,8.949439E2,1.00617395E3],"tree_param":{"num_deleted":"0","num_feature":"21","num_nodes":"63","size_leaf_vector":"0"}},{"base_weights":[-1.667024E-2,-2.9156807E-1,1.0199112E-2,-1.3372363E-1,-3.8801804E-1,2.4719728E-2,-2.879078E-1,-3.4699234E-1,1.7304261E-1,-3.1370294E-1,-5.293947E-1,-1.2951341E-1,4.000724E-2,-2.0206481E-1,-4.5830807E-1,-4.2316866E-1,1.0788903E-1,2.6641694E-1,-1.5286815E-1,-3.781414E-1,-1.8856914E-1,-5.775463E-1,-4.442259E-1,-2.876744E-1,3.3459723E-1,8.319792E-2,-1.4963072E-2,-8.439263E-2,-2.5146106E-1,-2.1328512E-1,-4.928043E-1,-5.404364E-1,-2.8241175E-1,-4.4542298E-1,2.438787E-1,-1.8296877E-1,3.9390373E-1,-7.815794E-2,-6.754856E-1,-4.5651048E-1,-2.4043387E-1,-1.422407E-1,-3.1152198E-1,-6.524302E-1,-5.3752303E-1,-4.1531363E-1,-5.010971E-1,-3.624608E-1,-1.245262E-1,-1.471286E-1,4.0782914E-1,-6.537421E-2,1.08482696E-1,7.76167E-2,-1.09261245E-1,-2.390177E-2,-1.9420975E-1,-3.6735997E-1,-2.0123464E-1,-5.1905006E-1,-1.7818405E-1,-5.6793576E-1,-4.383933E-1],"categories":[],"categories_nodes":[],"categories_segments":[],"categories_sizes":[],"default_left":[false,false,false,false,false,false,false,false,false,false,false,false,false,false,false,false,false,false,false,false,false,false,false,false,false,false,false,false,false,false,false,false,false,false,false,false,false,false,false,false,false,false,false,false,false,false,false,false,false,false,false,false,false,false,false,false,false,false,false,false,false,false,false],"id":21,"left_children":[1,3,5,7,9,11,13,15,17,19,21,23,25,27,29,31,33,35,37,39,41,43,45,47,49,51,53,55,57,59,61,-1,-1,-1,-1,-1,-1,-1,-1,-1,-1,-1,-1,-1,-1,-1,-1,-1,-1,-1,-1,-1,-1,-1,-1,-1,-1,-1,-1,-1,-1,-1,-1],"loss_changes":[4.3398696E3,7.964095E2,2.3168953E3,1.2983351E3,3.410061E2,1.2033997E3,3.635563E2,4.0568268E2,2.4771922E2,1.715743E2,4.562063E1,3.37865E3,1.1024734E3,9.60824E1,7.028254E1,1.6536064E2,1.2651816E2,3.6253284E2,7.074118E1,1.5152E2,4.118341E1,2.1057907E1,6.442472E0,4.1880923E2,4.1277167E2,9.768739E2,1.7837078E3,3.2479023E1,6.7712715E1,1.0956703E1,2.958951E1,0E0,0E0,0E0,0E0,0E0,0E0,0E0,0E0,0E0,0E0,0E0,0E0,0E0,0E0,0E0,0E0,0E0,0E0,0E0,0E0,0E0,0E0,0E0,0E0,0E0,0E0,0E0,0E0,0E0,0E0,0E0,0E0],"parents":[2147483647,0,0,1,1,2,2,3,3,4,4,5,5,6,6,7,7,8,8,9,9,10,10,11,11,12,12,13,13,14,14,15,15,16,16,17,17,18,18,19,19,20,20,21,21,22,22,23,23,24,24,25,25,26,26,27,27,28,28,29,29,30,30],"right_children":[2,4,6,8,10,12,14,16,18,20,22,24,26,28,30,32,34,36,38,40,42,44,46,48,50,52,54,56,58,60,62,-1,-1,-1,-1,-1,-1,-1,-1,-1,-1,-1,-1,-1,-1,-1,-1,-1,-1,-1,-1,-1,-1,-1,-1,-1,-1,-1,-1,-1,-1,-1,-1],"split_conditions":[4.5873922E-1,1.6702778E0,3.3503737E0,4.7375E1,4.675E1,9.941776E-1,3.7516303E0,1.2257812E1,1.3883513E0,4.387197E-1,4.387197E-1,5.59375E1,2.308938E0,7.2851553E0,5.6953115E0,1.2551516E0,7.893399E-1,6.018221E-1,7.875E1,7.93456E-1,9.765624E0,2.308938E0,6.53125E1,4.334375E1,8.656249E0,6.214843E0,4.184375E1,8.049306E-1,1.361074E-1,8.5509256E-2,2.3120017E-1,-1.2610182E-1,-6.589608E-2,-1.0393203E-1,5.690503E-2,-4.2692713E-2,9.191087E-2,-1.8236853E-2,-1.576133E-1,-1.0651911E-1,-5.6101236E-2,-3.3189498E-2,-7.268846E-2,-1.522337E-1,-1.2542205E-1,-9.690651E-2,-1.16922654E-1,-8.4574185E-2,-2.9056113E-2,-3.4330007E-2,9.5160134E-2,-1.52539825E-2,2.5312629E-2,1.8110564E-2,-2.549429E-2,-5.5770795E-3,-4.531561E-2,-8.571733E-2,-4.695475E-2,-1.2111168E-1,-4.1576277E-2,-1.3251835E-1,-1.0229177E-1],"split_indices":[19,14,14,8,8,14,14,7,14,19,19,8,14,7,7,14,14,14,8,15,7,14,8,8,7,7,8,10,15,15,15,0,0,0,0,0,0,0,0,0,0,0,0,0,0,0,0,0,0,0,0,0,0,0,0,0,0,0,0,0,0,0,0],"split_type":[0,0,0,0,0,0,0,0,0,0,0,0,0,0,0,0,0,0,0,0,0,0,0,0,0,0,0,0,0,0,0,0,0,0,0,0,0,0,0,0,0,0,0,0,0,0,0,0,0,0,0,0,0,0,0,0,0,0,0,0,0,0,0],"sum_hessian":[5.8755306E5,5.2314855E4,5.3523825E5,1.9843127E4,3.2471727E4,5.1037888E5,2.4859344E4,1.1705293E4,8.137834E3,2.1285928E4,1.11858E4,4.6025707E4,4.643532E5,1.6532771E4,8.326573E3,1.0026314E4,1.6789786E3,6.3256895E3,1.8121444E3,1.4049187E4,7.236741E3,7.14211E3,4.0436897E3,3.432777E4,1.1697938E4,2.6003822E5,2.0431495E5,4.8889585E3,1.16438125E4,1.0284907E3,7.2980825E3,5.46798E3,4.558334E3,3.3079034E2,1.3481884E3,1.3978591E3,4.9278306E3,1.5864979E3,2.2564655E2,8.952194E3,5.0969917E3,5.2577754E3,1.9789656E3,2.4823354E3,4.6597744E3,2.6863176E3,1.3573721E3,2.3537203E4,1.0790565E4,1.5435203E3,1.0154418E4,3.7818277E4,2.2221995E5,1.0309694E5,1.01218016E5,3.1532585E3,1.7357001E3,3.5184885E3,8.1253237E3,1.0449026E2,9.2400055E2,3.0614082E3,4.2366743E3],"tree_param":{"num_deleted":"0","num_feature":"21","num_nodes":"63","size_leaf_vector":"0"}},{"base_weights":[-1.667024E-2,-4.4548267E-1,-1.6184257E-3,-4.867195E-1,-8.471413E-3,4.2865104E-3,-3.7953952E-1,-5.840848E-1,-3.0105284E-1,-4.7766355E-1,5.2431446E-2,-1.6012692E-1,9.471801E-3,-3.2125545E-1,-4.378073E-1,-3.918558E-1,-7.1089816E-1,-3.0717915E-1,-3.947762E-2,-4.0524873E-1,-9.052757E-1,1.2648287E-1,-2.5019416E-1,-2.2508249E-1,-5.292923E-2,1.9685538E-2,-7.3915824E-2,-3.042406E-1,-6.3518465E-1,-6.23825E-1,-4.1676635E-1,-4.4755682E-1,-3.121481E-1,-8.1291735E-1,-5.9817785E-1,-2.5931123E-1,-3.4980318E-1,-3.916626E-1,1.01596326E-1,-8.21771E-1,-3.2768676E-1,-4.4377965E-1,-9.6425E-1,-1.0925704E-1,2.218022E-1,-5.0286907E-1,-1.2518129E-1,-2.9647282E-1,-1.5407795E-1,3.5433456E-1,-8.132749E-2,-8.412075E-2,2.8641265E-2,-5.765918E-2,-1.8802448E-1,-4.9905282E-1,-2.808538E-1,-7.0007175E-1,-4.2549923E-1,-4.5953378E-1,-6.950816E-1,-3.6510783E-1,-4.9297523E-1],"categories":[],"categories_nodes":[],"categories_segments":[],"categories_sizes":[],"default_left":[false,false,false,false,false,false,false,false,false,false,false,false,false,false,false,false,false,false,false,false,false,false,false,false,false,false,false,false,false,false,false,false,false,false,false,false,false,false,false,false,false,false,false,false,false,false,false,false,false,false,false,false,false,false,false,false,false,false,false,false,false,false,false],"id":22,"left_children":[1,3,5,7,9,11,13,15,17,19,21,23,25,27,29,31,33,35,37,39,41,43,45,47,49,51,53,55,57,59,61,-1,-1,-1,-1,-1,-1,-1,-1,-1,-1,-1,-1,-1,-1,-1,-1,-1,-1,-1,-1,-1,-1,-1,-1,-1,-1,-1,-1,-1,-1,-1,-1],"loss_changes":[3.7923115E3,3.5905356E2,1.2667261E3,3.289512E2,4.9145676E1,4.7648047E2,2.9516228E1,2.908395E2,1.0027875E1,5.7517715E0,3.414849E1,1.1897166E2,4.614625E2,2.314611E1,1.6821404E1,2.0945086E1,8.224422E1,1.2399559E1,7.220475E0,5.248301E0,3.2885626E-1,2.7523182E1,9.401554E0,5.3889034E1,7.4612175E1,4.4874103E2,1.096628E2,1.8752602E1,2.7461479E0,4.8487854E0,1.5267073E1,0E0,0E0,0E0,0E0,0E0,0E0,0E0,0E0,0E0,0E0,0E0,0E0,0E0,0E0,0E0,0E0,0E0,0E0,0E0,0E0,0E0,0E0,0E0,0E0,0E0,0E0,0E0,0E0,0E0,0E0,0E0,0E0],"parents":[2147483647,0,0,1,1,2,2,3,3,4,4,5,5,6,6,7,7,8,8,9,9,10,10,11,11,12,12,13,13,14,14,15,15,16,16,17,17,18,18,19,19,20,20,21,21,22,22,23,23,24,24,25,25,26,26,27,27,28,28,29,29,30,30],"right_children":[2,4,6,8,10,12,14,